{"learner":{"attributes":{"scikit_learn":"{\"_estimator_type\": \"classifier\"}"},"feature_names":["URLLength","DomainLength","TLDLength","NoOfSubDomain","NoOfLettersInURL","NoOfDegitsInURL","DegitRatioInURL","NoOfOtherSpecialCharsInURL","SpacialCharRatioInURL","IsDomainIP","HasObfuscation","NoOfObfuscatedChar","ObfuscationRatio","HyphenCount","SuspiciousWordCount","Entropy"],"feature_types":["int","int","int","int","int","int","float","int","float","int","int","int","float","int","int","float"],"gradient_booster":{"model":{"cats":{"enc":[],"feature_segments":[],"sorted_idx":[]},"gbtree_model_param":{"num_parallel_tree":"1","num_trees":"300"},"iteration_indptr":[0,1,2,3,4,5,6,7,8,9,10,11,12,13,14,15,16,17,18,19,20,21,22,23,24,25,26,27,28,29,30,31,32,33,34,35,36,37,38,39,40,41,42,43,44,45,46,47,48,49,50,51,52,53,54,55,56,57,58,59,60,61,62,63,64,65,66,67,68,69,70,71,72,73,74,75,76,77,78,79,80,81,82,83,84,85,86,87,88,89,90,91,92,93,94,95,96,97,98,99,100,101,102,103,104,105,106,107,108,109,110,111,112,113,114,115,116,117,118,119,120,121,122,123,124,125,126,127,128,129,130,131,132,133,134,135,136,137,138,139,140,141,142,143,144,145,146,147,148,149,150,151,152,153,154,155,156,157,158,159,160,161,162,163,164,165,166,167,168,169,170,171,172,173,174,175,176,177,178,179,180,181,182,183,184,185,186,187,188,189,190,191,192,193,194,195,196,197,198,199,200,201,202,203,204,205,206,207,208,209,210,211,212,213,214,215,216,217,218,219,220,221,222,223,224,225,226,227,228,229,230,231,232,233,234,235,236,237,238,239,240,241,242,243,244,245,246,247,248,249,250,251,252,253,254,255,256,257,258,259,260,261,262,263,264,265,266,267,268,269,270,271,272,273,274,275,276,277,278,279,280,281,282,283,284,285,286,287,288,289,290,291,292,293,294,295,296,297,298,299,300],"tree_info":[0,0,0,0,0,0,0,0,0,0,0,0,0,0,0,0,0,0,0,0,0,0,0,0,0,0,0,0,0,0,0,0,0,0,0,0,0,0,0,0,0,0,0,0,0,0,0,0,0,0,0,0,0,0,0,0,0,0,0,0,0,0,0,0,0,0,0,0,0,0,0,0,0,0,0,0,0,0,0,0,0,0,0,0,0,0,0,0,0,0,0,0,0,0,0,0,0,0,0,0,0,0,0,0,0,0,0,0,0,0,0,0,0,0,0,0,0,0,0,0,0,0,0,0,0,0,0,0,0,0,0,0,0,0,0,0,0,0,0,0,0,0,0,0,0,0,0,0,0,0,0,0,0,0,0,0,0,0,0,0,0,0,0,0,0,0,0,0,0,0,0,0,0,0,0,0,0,0,0,0,0,0,0,0,0,0,0,0,0,0,0,0,0,0,0,0,0,0,0,0,0,0,0,0,0,0,0,0,0,0,0,0,0,0,0,0,0,0,0,0,0,0,0,0,0,0,0,0,0,0,0,0,0,0,0,0,0,0,0,0,0,0,0,0,0,0,0,0,0,0,0,0,0,0,0,0,0,0,0,0,0,0,0,0,0,0,0,0,0,0,0,0,0,0,0,0,0,0,0,0,0,0,0,0,0,0,0,0,0,0,0,0,0,0,0,0,0,0,0,0],"trees":[{"base_weights":[-2.5224604E-3,6.845815E-1,-2.0818043E0,8.438597E-1,-2.1435394E0,-1.3240601E0,-2.2880392E0,9.386939E-1,-8.0880004E-1,-2.3483041E-1,-8.0498403E-1,-7.496728E-1,-2.2596629E0,-2.3099701E0,-1.7489349E0,1.0050362E0,2.879174E-1,-6.2675947E-1,-2.2428425E-1,4.6032515E-1,-2.0466619E0,1.1801454E-1,-1.288927E0,-4.1758576E-1,-2.294941E-1,-2.1457574E0,-2.3355098E-1,-5.144223E-1,-2.2842796E0,6.95155E-1,1.0709975E0,3.3248493E-1,-2.1716957E-1,-5.127764E-1,-1.8523014E0,6.627426E-1,-2.042239E-1,-1.4115748E0,-2.3172386E-1,9.615685E-1,-8.7002486E-1,-1.4676324E0,1.2262995E0,-1.9609198E-1,1.3792545E-1,-2.011964E0,-2.3231344E-1,-1.9195181E-1,-2.0046535E-1,-1.5182874E0,-2.3077981E-1,-1.4065081E0,7.4902564E-1,1.0780177E0,-1.2691231E0,2.620351E-1,1.1576567E0,-1.1965114E0,-2.52433E-1,-2.245293E0,-7.384428E-1,7.368501E-1,-1.616729E-1,-2.010177E0,-5.5747724E-1,1.0644767E0,-2.0775154E-1,-1.2554401E0,9.766873E-1,-1.3410053E0,-2.3142555E-1,1.549138E-1,-1.344823E-1,-6.5550804E-1,-2.0387943E0,5.054008E-1,-6.801035E-1,5.675328E-3,-1.7790471E-1,-8.305563E-1,-2.2904634E-1,6.314212E-1,1.0133698E0,1.4484242E0,1.0520736E0,-1.3319892E0,6.2897295E-2,3.204309E-1,-1.483833E0,1.2440306E0,-6.783683E-1,-1.3751369E0,1.0765129E0,-1.5599713E-1,-1.1731896E0,-2.306017E-1,-1.1529169E0,-2.2972311E-1,-1.3417828E0,9.0148693E-1,-1.8091187E-1,-2.2015846E-1,-7.366935E-1,-1.9002792E-1,-1.3675458E0,1.2861296E0,5.5572534E-1,7.055567E-1,-1.4813635E0,-1.8477173E-1,1.335631E0,-8.410368E-1,-1.4940375E0,-7.262799E-2,1.04316436E-1,-1.4655144E0,-8.2664E-2,-1.8181113E0,-2.0922077E-1,9.639742E-1,2.2614005E-1,4.422511E-1,-1.2005244E0,-2.0991106E-1,-5.9231848E-2,6.87543E-2,-2.3047988E-1,1.0370276E-1,7.095803E-4,1.4790726E-1,6.701886E-2,9.682428E-2,1.1196202E-1,-1.0530807E-1,-2.045214E-1,8.487686E-3,4.4760164E-2,-1.1886245E-1,-1.8884595E-1,1.422215E-1,7.645593E-2,-1.355677E-1,8.835259E-2,-6.702762E-2,-2.1309648E-1,7.799234E-2,1.5309976E-1,-3.8607217E-2,8.618407E-3,-8.6298786E-2,-1.6640584E-1,-1.7887409E-1,1.3595156E-2,1.6504966E-2,-8.439925E-2,-1.88032E-1,-6.1453354E-2,5.8825172E-2,1.1130581E-1,3.0701512E-2,-1.119554E-1,2.2353178E-2,-1.3982329E-1,-4.7884148E-2,1.0344141E-1,-3.9328344E-2,-1.616729E-1,1.5114772E-1,6.970509E-2,2.0861967E-2,1.3556734E-1,-4.3449897E-2,1.0766367E-1,-1.8041761E-1,-8.8497676E-2,7.7000104E-2,1.5097673E-1,-1.16412595E-1,1.5524866E-2,9.361862E-3,-1.5282927E-1,-1.7141329E-1,-3.9328344E-2,4.1986626E-2,-1.3982329E-1,-1.3244228E-1,-1.892305E-1,1.277403E-1,1.2636878E-2,-3.9444413E-2,5.7084348E-2,7.0051394E-2,-1.2933569E-1,4.7433063E-2,-1.3349742E-1],"categories":[],"categories_nodes":[],"categories_segments":[],"categories_sizes":[],"default_left":[0,0,0,0,0,0,0,0,0,0,0,0,0,0,0,0,0,0,0,0,0,0,0,0,0,0,0,0,0,0,0,0,0,0,0,0,0,0,0,0,0,0,0,0,0,0,0,0,0,0,0,0,0,0,0,0,0,0,0,0,0,0,0,0,0,0,0,0,0,0,0,0,0,0,0,0,0,0,0,0,0,0,0,0,0,0,0,0,0,0,0,0,0,0,0,0,0,0,0,0,0,0,0,0,0,0,0,0,0,0,0,0,0,0,0,0,0,0,0,0,0,0,0,0,0,0,0,0,0,0,0,0,0,0,0,0,0,0,0,0,0,0,0,0,0,0,0,0,0,0,0,0,0,0,0,0,0,0,0,0,0,0,0,0,0,0,0,0,0,0,0,0,0,0,0,0,0,0,0,0,0,0,0,0,0,0,0,0,0,0,0,0,0,0,0],"id":0,"left_children":[1,3,5,7,9,11,13,15,17,-1,19,21,23,25,27,29,31,33,-1,35,37,39,41,43,-1,45,-1,47,49,51,53,55,-1,57,59,61,-1,63,-1,65,67,69,71,-1,-1,73,-1,75,-1,77,-1,79,81,83,85,87,89,91,93,95,97,99,-1,101,103,105,-1,107,109,111,-1,-1,113,115,117,119,121,-1,-1,123,-1,125,127,129,131,133,-1,135,137,139,141,143,145,147,149,-1,151,153,155,157,159,-1,161,163,165,167,169,171,173,-1,175,177,179,-1,-1,181,183,185,-1,187,189,191,193,-1,-1,-1,-1,-1,-1,-1,-1,-1,-1,-1,-1,-1,-1,-1,-1,-1,-1,-1,-1,-1,-1,-1,-1,-1,-1,-1,-1,-1,-1,-1,-1,-1,-1,-1,-1,-1,-1,-1,-1,-1,-1,-1,-1,-1,-1,-1,-1,-1,-1,-1,-1,-1,-1,-1,-1,-1,-1,-1,-1,-1,-1,-1,-1,-1,-1,-1,-1,-1,-1,-1,-1],"loss_changes":[5.2454145E4,1.2432603E4,1.4220508E3,4.0953418E3,4.0145947E2,1.0480239E3,8.069141E1,1.0664551E3,3.6885315E2,0E0,3.100902E2,5.6715735E2,4.7295166E1,2.3859375E1,1.8669556E2,4.5756055E2,2.5144171E2,1.750534E2,0E0,5.1135654E1,1.3826508E1,3.8871066E2,3.37755E2,4.4788647E1,0E0,1.7605469E1,0E0,4.1556217E1,6.298828E-2,4.4689734E2,3.0504297E2,1.303427E2,0E0,2.051377E2,4.510489E1,1.6677647E1,0E0,1.5385162E1,0E0,8.0873E1,1.5415094E2,7.175769E1,2.222934E1,0E0,0E0,1.8411377E1,0E0,2.514492E1,0E0,3.7238388E0,0E0,4.8379578E1,1.18743164E2,1.7558398E2,7.4898987E0,2.1170552E2,2.8831772E1,1.3059369E2,7.414825E1,2.546997E0,8.700602E0,1.368264E1,0E0,2.9113083E0,4.111806E0,2.679364E1,0E0,7.999228E1,4.0648914E1,4.5401733E1,0E0,0E0,8.097624E0,5.4461865E0,2.4624023E0,3.6972833E0,2.581217E1,0E0,0E0,1.7303398E1,0E0,4.3998218E2,2.8102173E1,2.7719482E1,9.64668E1,8.644051E0,0E0,6.0042007E1,5.7864532E0,1.334317E1,1.0270884E1,1.5587634E2,2.0046291E0,4.231961E1,1.0625206E1,0E0,5.2687855E0,4.2934995E0,4.0222607E0,4.384094E0,6.958201E0,0E0,2.8108315E0,4.479075E0,4.3762589E-1,2.1401031E1,2.0761219E1,8.542252E0,2.9227844E1,0E0,2.1858788E0,4.6919296E1,2.5466064E1,0E0,0E0,6.3489056E-1,5.934046E0,1.5679321E0,0E0,2.79601E0,4.569454E0,7.3797426E0,7.352745E0,0E0,0E0,0E0,0E0,0E0,0E0,0E0,0E0,0E0,0E0,0E0,0E0,0E0,0E0,0E0,0E0,0E0,0E0,0E0,0E0,0E0,0E0,0E0,0E0,0E0,0E0,0E0,0E0,0E0,0E0,0E0,0E0,0E0,0E0,0E0,0E0,0E0,0E0,0E0,0E0,0E0,0E0,0E0,0E0,0E0,0E0,0E0,0E0,0E0,0E0,0E0,0E0,0E0,0E0,0E0,0E0,0E0,0E0,0E0,0E0,0E0,0E0,0E0,0E0,0E0,0E0,0E0,0E0,0E0,0E0,0E0,0E0],"parents":[2147483647,0,0,1,1,2,2,3,3,4,4,5,5,6,6,7,7,8,8,10,10,11,11,12,12,13,13,14,14,15,15,16,16,17,17,19,19,20,20,21,21,22,22,23,23,25,25,27,27,28,28,29,29,30,30,31,31,33,33,34,34,35,35,37,37,39,39,40,40,41,41,42,42,45,45,47,47,49,49,51,51,52,52,53,53,54,54,55,55,56,56,57,57,58,58,59,59,60,60,61,61,63,63,64,64,65,65,67,67,68,68,69,69,72,72,73,73,74,74,75,75,76,76,79,79,81,81,82,82,83,83,84,84,85,85,87,87,88,88,89,89,90,90,91,91,92,92,93,93,94,94,96,96,97,97,98,98,99,99,100,100,102,102,103,103,104,104,105,105,106,106,107,107,108,108,110,110,111,111,112,112,115,115,116,116,117,117,119,119,120,120,121,121,122,122],"right_children":[2,4,6,8,10,12,14,16,18,-1,20,22,24,26,28,30,32,34,-1,36,38,40,42,44,-1,46,-1,48,50,52,54,56,-1,58,60,62,-1,64,-1,66,68,70,72,-1,-1,74,-1,76,-1,78,-1,80,82,84,86,88,90,92,94,96,98,100,-1,102,104,106,-1,108,110,112,-1,-1,114,116,118,120,122,-1,-1,124,-1,126,128,130,132,134,-1,136,138,140,142,144,146,148,150,-1,152,154,156,158,160,-1,162,164,166,168,170,172,174,-1,176,178,180,-1,-1,182,184,186,-1,188,190,192,194,-1,-1,-1,-1,-1,-1,-1,-1,-1,-1,-1,-1,-1,-1,-1,-1,-1,-1,-1,-1,-1,-1,-1,-1,-1,-1,-1,-1,-1,-1,-1,-1,-1,-1,-1,-1,-1,-1,-1,-1,-1,-1,-1,-1,-1,-1,-1,-1,-1,-1,-1,-1,-1,-1,-1,-1,-1,-1,-1,-1,-1,-1,-1,-1,-1,-1,-1,-1,-1,-1,-1,-1],"split_conditions":[1E0,3.1E1,2.1E1,1E0,2.4E1,1E0,5E0,1E0,5E0,-2.3483041E-1,3.7E1,5E0,3E0,2.5E1,3.2E1,3E0,1E0,2.3E1,-2.2428425E-1,1E0,1E0,1.6E1,5E0,2E0,-2.294941E-1,1E0,-2.3355098E-1,1E0,3.4E1,3E0,1E0,5E0,-2.1716957E-1,2.2464395E0,1.9E1,1E0,-2.042239E-1,3.3E1,-2.3172386E-1,1E0,5E0,4E0,6E0,-1.9609198E-1,1.3792545E-1,1.5849625E0,-2.3231344E-1,6E0,-2.0046535E-1,5E0,-2.3077981E-1,6E0,1.1E1,5E0,2.2E1,4E0,7E0,5E0,1E0,6E0,1E0,3.5E1,-1.616729E-1,5E0,4.2E1,1.4E1,-2.0775154E-1,1.0612781E0,1E0,3E0,-2.3142555E-1,1.549138E-1,2.7254806E0,3E0,2.2E1,6E0,5E0,5.675328E-3,-1.7790471E-1,2E0,-2.2904634E-1,1.4E1,2.6E1,1.2E1,1.1E1,2.4E1,6.2897295E-2,3E0,2.2E1,6E0,8E0,1E1,8E0,2.8510187E0,1.8E1,-2.306017E-1,3.1248436E0,2.6E1,3.6901164E0,2.8E1,3.7950885E0,-2.2015846E-1,3.9E1,3E0,3.6644979E0,4E0,5E0,3E0,4E0,-1.8477173E-1,1.5219281E0,8E0,1.921928E0,-7.262799E-2,1.04316436E-1,2.3E1,1E0,3E0,-2.0922077E-1,2.7E1,9E0,1E0,2.2E1,-2.0991106E-1,-5.9231848E-2,6.87543E-2,-2.3047988E-1,1.0370276E-1,7.095803E-4,1.4790726E-1,6.701886E-2,9.682428E-2,1.1196202E-1,-1.0530807E-1,-2.045214E-1,8.487686E-3,4.4760164E-2,-1.1886245E-1,-1.8884595E-1,1.422215E-1,7.645593E-2,-1.355677E-1,8.835259E-2,-6.702762E-2,-2.1309648E-1,7.799234E-2,1.5309976E-1,-3.8607217E-2,8.618407E-3,-8.6298786E-2,-1.6640584E-1,-1.7887409E-1,1.3595156E-2,1.6504966E-2,-8.439925E-2,-1.88032E-1,-6.1453354E-2,5.8825172E-2,1.1130581E-1,3.0701512E-2,-1.119554E-1,2.2353178E-2,-1.3982329E-1,-4.7884148E-2,1.0344141E-1,-3.9328344E-2,-1.616729E-1,1.5114772E-1,6.970509E-2,2.0861967E-2,1.3556734E-1,-4.3449897E-2,1.0766367E-1,-1.8041761E-1,-8.8497676E-2,7.7000104E-2,1.5097673E-1,-1.16412595E-1,1.5524866E-2,9.361862E-3,-1.5282927E-1,-1.7141329E-1,-3.9328344E-2,4.1986626E-2,-1.3982329E-1,-1.3244228E-1,-1.892305E-1,1.277403E-1,1.2636878E-2,-3.9444413E-2,5.7084348E-2,7.0051394E-2,-1.2933569E-1,4.7433063E-2,-1.3349742E-1],"split_indices":[3,0,0,5,1,5,2,13,5,0,0,1,1,0,0,2,14,0,0,5,5,0,2,3,0,5,0,5,0,1,14,2,0,15,1,14,0,1,0,13,2,2,2,0,0,15,0,2,0,1,0,0,1,1,1,2,2,2,13,2,13,0,0,2,0,0,0,15,15,2,0,0,15,2,0,1,1,0,0,1,0,0,0,0,1,0,0,2,0,2,2,0,2,15,0,0,15,0,15,1,15,0,0,13,15,1,2,2,1,0,15,1,15,0,0,0,13,2,0,0,1,13,0,0,0,0,0,0,0,0,0,0,0,0,0,0,0,0,0,0,0,0,0,0,0,0,0,0,0,0,0,0,0,0,0,0,0,0,0,0,0,0,0,0,0,0,0,0,0,0,0,0,0,0,0,0,0,0,0,0,0,0,0,0,0,0,0,0,0,0,0,0,0,0,0],"split_type":[0,0,0,0,0,0,0,0,0,0,0,0,0,0,0,0,0,0,0,0,0,0,0,0,0,0,0,0,0,0,0,0,0,0,0,0,0,0,0,0,0,0,0,0,0,0,0,0,0,0,0,0,0,0,0,0,0,0,0,0,0,0,0,0,0,0,0,0,0,0,0,0,0,0,0,0,0,0,0,0,0,0,0,0,0,0,0,0,0,0,0,0,0,0,0,0,0,0,0,0,0,0,0,0,0,0,0,0,0,0,0,0,0,0,0,0,0,0,0,0,0,0,0,0,0,0,0,0,0,0,0,0,0,0,0,0,0,0,0,0,0,0,0,0,0,0,0,0,0,0,0,0,0,0,0,0,0,0,0,0,0,0,0,0,0,0,0,0,0,0,0,0,0,0,0,0,0,0,0,0,0,0,0,0,0,0,0,0,0,0,0,0,0,0,0],"sum_hessian":[3.6713043E4,2.7594906E4,9.118137E3,2.6124303E4,1.4706041E3,1.9523326E3,7.1658037E3,2.470698E4,1.4173231E3,1.2748331E3,1.9577097E2,1.2107982E3,7.415344E2,6.8825347E3,2.832691E2,2.2420785E4,2.286194E3,1.2589465E3,1.5837651E2,9.727446E1,9.84965E1,4.6437555E2,7.464226E2,1.4175675E1,7.2735876E2,9.3779425E2,5.94474E3,8.627609E1,1.96993E2,3.9369272E3,1.8483857E4,2.2463557E3,3.9838535E1,1.1531178E3,1.0582874E2,9.067544E1,6.599021E0,3.1284248E1,6.721225E1,2.505184E2,2.1385716E2,6.972966E2,4.9126045E1,7.576654E0,6.599021E0,5.416085E2,3.9618567E2,7.185601E1,1.4420083E1,7.821062E0,1.8917194E2,9.7763275E1,3.8391638E3,1.8429111E4,5.4747437E1,2.0708706E3,1.7548508E2,3.1699744E2,8.361204E2,7.7477394E1,2.835135E1,8.847576E1,2.1996737E0,1.759739E1,1.3686859E1,2.4294174E2,7.576654E0,1.7719594E2,3.666123E1,6.088208E2,8.847576E1,3.9594128E1,9.5319195E0,1.0998368E1,5.3061017E2,2.9573391E1,4.2282616E1,1.2220409E0,6.599021E0,6.0368824E1,3.7394455E1,2.6594055E3,1.1797583E3,1.2027327E3,1.7226379E4,5.3280987E1,1.4664491E0,2.004636E3,6.623462E1,1.6790843E2,7.576654E0,2.9426746E2,2.2729961E1,7.579098E2,7.821062E1,7.2344826E1,5.132572E0,1.6130941E1,1.2220409E1,7.503332E1,1.3442451E1,1.4664492E1,2.9328983E0,1.0265144E1,3.4217148E0,1.6815283E2,7.478891E1,1.8086206E1,1.5910973E2,3.666123E0,3.2995106E1,1.4420084E2,4.6461996E2,6.599021E0,2.9328983E0,3.910531E0,7.0878377E0,1.10228096E2,4.2038208E2,1.0265144E1,1.9308247E1,1.3442451E1,2.8840166E1,8.309878E0,5.2058945E1,2.6102795E3,4.9126045E1,1.152629E3,2.7129309E1,1.1562952E3,4.6437557E1,7.693481E3,9.532897E3,4.0082943E1,1.3198042E1,7.034068E2,1.3012292E3,4.057176E1,2.566286E1,1.20982056E2,4.6926373E1,5.3769803E0,2.1996737E0,1.5324394E2,1.4102353E2,1.5397716E1,7.332246E0,3.8836462E2,3.695452E2,4.9614864E1,2.8595758E1,3.1773064E0,1.9552655E0,1.0265144E1,5.8657966E0,6.1102047E0,6.1102047E0,3.1773066E1,4.326025E1,9.287511E0,4.154939E0,1.4664491E0,1.4664491E0,8.798695E0,1.4664491E0,1.2220409E0,2.1996737E0,1.2049324E2,4.7659595E1,5.303658E1,2.1752329E1,4.3993473E0,1.3686859E1,1.0191821E2,5.7191517E1,9.043103E0,2.3952003E1,1.0876164E2,3.5439186E1,9.776327E0,4.5484363E2,2.6884902E0,1.2220409E0,5.6213884E0,1.4664491E0,1.6864164E1,9.336393E1,7.0878377E0,3.1773064E0,6.8434296E0,1.2464818E1,1.2220409E1,1.2220409E0,1.9552655E0,2.6884901E1],"tree_param":{"num_deleted":"0","num_feature":"16","num_nodes":"195","size_leaf_vector":"1"}},{"base_weights":[5.095379E-4,6.271005E-1,-1.8340594E0,7.7502805E-1,-1.884803E0,-1.2068101E0,-2.0258365E0,8.615484E-1,-7.249076E-1,-2.0657206E-1,-6.868828E-1,-7.162257E-1,-1.9861324E0,-1.9371179E0,-2.0682068E-1,9.216405E-1,2.8348076E-1,-5.6196433E-1,-1.9745503E-1,6.2980914E-1,-1.7462735E0,3.1805392E-2,-1.1455333E0,-5.65191E-1,-2.0184265E-1,-1.7902601E0,-2.0298319E-1,9.278246E-1,-1.1995007E0,3.2270926E-1,-1.9125398E-1,-1.4187325E0,-3.951572E-1,8.240131E-1,-1.8011288E-1,-1.1693274E0,-2.0441408E-1,8.104014E-1,-8.971353E-1,-1.3478872E0,-9.23156E-1,-1.6448783E0,1.310215E-1,-7.161184E-1,-1.7991282E0,-4.5892832E-1,9.367001E-1,-1.412556E0,-6.349469E-1,3.8871813E-1,-1.8315919E-1,-8.3572E-1,-1.812538E0,-2.2114024E-1,-1.260657E0,8.8681984E-1,-1.3657103E-1,-1.9218151E-1,-6.6251916E-1,9.5773345E-1,-1.5798402E0,6.2302625E-1,-1.0736498E0,-1.0517951E0,-1.53043E0,-3.5449165E-1,-1.20811E0,-4.638807E-2,-1.7560099E-1,-1.0144875E-1,3.624059E-2,-1.8027397E0,-3.5569325E-1,5.0889008E-2,-1.9750887E-1,8.693898E-1,1.0360867E0,-7.839329E-1,-1.7543626E-1,-2.5455582E-1,-9.7832984E-1,1.7364204E-1,5.589367E-1,-8.796387E-1,3.0628014E-2,-1.7051455E0,-6.684717E-1,-1.87874E0,-1.4500883E0,-1.4619452E-1,-1.035365E0,-1.9184388E0,-5.868561E-1,1.0224813E0,2.5600624E-1,7.742572E-1,-8.815915E-1,1.2501973E0,6.297851E-1,-1.7226584E0,-1.1607133E-2,6.8497306E-1,-1.974944E-2,-8.447902E-1,-1.907184E-1,-1.9741608E-1,-1.2732613E0,-1.798783E-1,-1.4802978E0,-1.5259269E-1,-9.620675E-1,-1.0448349E0,-1.6484072E0,-1.744278E0,-1.9360548E0,-1.1495099E-1,5.9952814E-2,-7.625111E-2,1.16316214E-1,8.924282E-2,-1.2706098E-1,1.0520891E-1,6.208671E-2,-1.4878605E-1,-5.9010115E-2,-3.9785173E-2,4.710154E-2,-1.253973E-1,-1.2598883E-3,2.6325097E-2,-2.2035094E-1,6.217589E-2,-1.287851E-2,9.587812E-2,-1.0208672E-1,-1.0817397E-1,7.686636E-3,-1.9785894E-1,3.3658866E-3,-2.452147E-3,-8.904871E-2,-8.618898E-3,-1.9378369E-1,-6.898516E-2,-1.7219941E-1,-7.039187E-3,-1.019898E-1,-1.1899854E-1,-2.9650388E-2,-2.0993662E-1,-1.6026632E-1,-1.7362628E-2,-1.423541E-1,1.1156253E-1,6.522257E-2,-1.8563982E-2,7.790545E-2,1.0721169E-1,6.4450293E-3,-4.226632E-2,-1.546014E-1,1.4176427E-1,6.2474072E-2,-3.8236782E-2,6.643343E-2,-1.879996E-1,-1.9127378E-2,8.093294E-2,1.6670004E-2,-5.506068E-2,-1.2571666E-1,-1.2162536E-1,2.6711022E-2,-1.9038403E-1,-1.101492E-1,-9.578054E-2,-1.57898E-1,2.3481125E-2,-4.1037735E-2,-1.2033407E-1,2.3824306E-2,-1.1933499E-2,-1.0882854E-1,-1.7896298E-1,-7.5982146E-2,-1.5285078E-1,-1.8281692E-1,-1.9686319E-1,-1.4246897E-1],"categories":[],"categories_nodes":[],"categories_segments":[],"categories_sizes":[],"default_left":[0,0,0,0,0,0,0,0,0,0,0,0,0,0,0,0,0,0,0,0,0,0,0,0,0,0,0,0,0,0,0,0,0,0,0,0,0,0,0,0,0,0,0,0,0,0,0,0,0,0,0,0,0,0,0,0,0,0,0,0,0,0,0,0,0,0,0,0,0,0,0,0,0,0,0,0,0,0,0,0,0,0,0,0,0,0,0,0,0,0,0,0,0,0,0,0,0,0,0,0,0,0,0,0,0,0,0,0,0,0,0,0,0,0,0,0,0,0,0,0,0,0,0,0,0,0,0,0,0,0,0,0,0,0,0,0,0,0,0,0,0,0,0,0,0,0,0,0,0,0,0,0,0,0,0,0,0,0,0,0,0,0,0,0,0,0,0,0,0,0,0,0,0,0,0,0,0,0,0,0,0,0,0,0,0,0,0,0,0],"id":1,"left_children":[1,3,5,7,9,11,13,15,17,-1,19,21,23,25,-1,27,29,31,-1,33,35,37,39,41,-1,43,-1,45,47,49,-1,51,53,55,-1,57,-1,59,61,63,65,67,-1,69,71,73,75,77,79,81,83,85,87,89,91,93,-1,-1,95,97,99,101,103,105,107,109,111,-1,-1,-1,-1,113,115,117,-1,119,121,123,-1,125,127,129,131,133,135,137,139,141,143,145,147,149,151,153,155,157,159,161,163,165,-1,167,-1,169,-1,171,173,-1,175,177,179,181,183,185,187,-1,-1,-1,-1,-1,-1,-1,-1,-1,-1,-1,-1,-1,-1,-1,-1,-1,-1,-1,-1,-1,-1,-1,-1,-1,-1,-1,-1,-1,-1,-1,-1,-1,-1,-1,-1,-1,-1,-1,-1,-1,-1,-1,-1,-1,-1,-1,-1,-1,-1,-1,-1,-1,-1,-1,-1,-1,-1,-1,-1,-1,-1,-1,-1,-1,-1,-1,-1,-1,-1,-1,-1,-1,-1],"loss_changes":[4.2075E4,1.0139456E4,1.1185078E3,3.3445156E3,3.2749805E2,8.3374194E2,2.2814453E1,8.4600977E2,2.851377E2,0E0,2.8096005E2,4.3104022E2,3.7557373E1,2.7982422E1,0E0,2.9058008E2,1.9836569E2,1.773721E2,0E0,4.4061726E1,1.676178E1,3.553956E2,3.7128662E1,4.2914017E1,0E0,7.352051E0,0E0,2.712578E2,6.8715973E0,7.5405E1,0E0,4.4980103E1,1.5688673E2,1.279142E1,0E0,1.40892105E1,0E0,9.564441E1,6.0793976E1,2.2404785E1,6.592041E1,9.2024994E-1,0E0,3.292396E0,4.045166E0,1.0878366E2,1.4536523E2,8.52446E0,2.2996573E0,7.297543E1,3.8902058E1,1.10015335E1,1.5533447E-1,5.294087E1,7.620328E1,6.794983E0,0E0,0E0,8.73938E0,2.3421173E1,3.1233177E0,1.3523245E0,3.675621E1,3.2416367E1,1.00531E0,1.6793478E1,1.7856995E1,0E0,0E0,0E0,0E0,3.6103516E0,3.335189E0,9.696709E1,0E0,6.4413574E2,5.7973633E1,1.5829105E0,0E0,1.2904286E0,2.6204348E0,1.8872417E2,4.8197662E1,1.690821E1,1.040762E1,6.1649094E0,1.0224827E1,1.0224487E1,3.549492E0,5.2770535E1,8.00621E0,1.6542358E0,3.0049635E1,1.601326E0,3.8242693E0,7.594521E-1,6.261549E0,1.2980896E1,4.4851875E0,3.1127472E0,0E0,1.3143902E0,0E0,1.8669014E1,0E0,1.77053E1,1.273378E1,0E0,1.062439E1,1.0566579E1,1.0207247E1,7.9694366E0,7.6683655E0,8.669189E0,1.5964355E0,0E0,0E0,0E0,0E0,0E0,0E0,0E0,0E0,0E0,0E0,0E0,0E0,0E0,0E0,0E0,0E0,0E0,0E0,0E0,0E0,0E0,0E0,0E0,0E0,0E0,0E0,0E0,0E0,0E0,0E0,0E0,0E0,0E0,0E0,0E0,0E0,0E0,0E0,0E0,0E0,0E0,0E0,0E0,0E0,0E0,0E0,0E0,0E0,0E0,0E0,0E0,0E0,0E0,0E0,0E0,0E0,0E0,0E0,0E0,0E0,0E0,0E0,0E0,0E0,0E0,0E0,0E0,0E0,0E0,0E0,0E0,0E0,0E0,0E0],"parents":[2147483647,0,0,1,1,2,2,3,3,4,4,5,5,6,6,7,7,8,8,10,10,11,11,12,12,13,13,15,15,16,16,17,17,19,19,20,20,21,21,22,22,23,23,25,25,27,27,28,28,29,29,31,31,32,32,33,33,35,35,37,37,38,38,39,39,40,40,41,41,43,43,44,44,45,45,46,46,47,47,48,48,49,49,50,50,51,51,52,52,53,53,54,54,55,55,58,58,59,59,60,60,61,61,62,62,63,63,64,64,65,65,66,66,71,71,72,72,73,73,75,75,76,76,77,77,79,79,80,80,81,81,82,82,83,83,84,84,85,85,86,86,87,87,88,88,89,89,90,90,91,91,92,92,93,93,94,94,95,95,96,96,97,97,98,98,99,99,101,101,103,103,105,105,106,106,108,108,109,109,110,110,111,111,112,112,113,113,114,114],"right_children":[2,4,6,8,10,12,14,16,18,-1,20,22,24,26,-1,28,30,32,-1,34,36,38,40,42,-1,44,-1,46,48,50,-1,52,54,56,-1,58,-1,60,62,64,66,68,-1,70,72,74,76,78,80,82,84,86,88,90,92,94,-1,-1,96,98,100,102,104,106,108,110,112,-1,-1,-1,-1,114,116,118,-1,120,122,124,-1,126,128,130,132,134,136,138,140,142,144,146,148,150,152,154,156,158,160,162,164,166,-1,168,-1,170,-1,172,174,-1,176,178,180,182,184,186,188,-1,-1,-1,-1,-1,-1,-1,-1,-1,-1,-1,-1,-1,-1,-1,-1,-1,-1,-1,-1,-1,-1,-1,-1,-1,-1,-1,-1,-1,-1,-1,-1,-1,-1,-1,-1,-1,-1,-1,-1,-1,-1,-1,-1,-1,-1,-1,-1,-1,-1,-1,-1,-1,-1,-1,-1,-1,-1,-1,-1,-1,-1,-1,-1,-1,-1,-1,-1,-1,-1,-1,-1,-1,-1],"split_conditions":[1E0,3.1E1,2.2E1,1E0,2.4E1,1E0,1E0,1E0,5E0,-2.0657206E-1,3.6E1,5E0,3E0,2.9E1,-2.0682068E-1,1E0,1E0,1.921928E0,-1.9745503E-1,1E0,1E0,1.4E1,7E0,2E0,-2.0184265E-1,3E0,-2.0298319E-1,3E0,1.5E1,2E0,-1.9125398E-1,1E1,2E1,1E0,-1.8011288E-1,3E1,-2.0441408E-1,1E0,3E0,2.257756E0,1.6E1,7E0,1.310215E-1,2E0,1.9E1,1.1E1,1.2E1,1.6E1,3.3836746E0,1.2E1,1.4E1,1E0,1.7527152E0,3.243243E-1,1.5E1,2E0,-1.3657103E-1,-1.9218151E-1,3.4E1,1.1E1,4E0,1E0,1E0,1.3E1,1.3E1,9E0,3.001629E0,-4.638807E-2,-1.7560099E-1,-1.0144875E-1,3.624059E-2,1E0,2.8E1,6E0,-1.9750887E-1,1.7E1,2.7E1,2.324863E0,-1.7543626E-1,2E1,3.640224E0,1.9E1,2.5E1,7E0,1.5E1,4E0,1.4705883E-1,6E0,3E0,1E0,1.2E1,2.9196906E0,1E0,3.7345216E0,2.9E1,3.6644979E0,1E0,4E0,1E0,1.7E1,-1.1607133E-2,1.8E1,-1.974944E-2,1.7E1,-1.907184E-1,1.1E1,1.6577427E0,-1.798783E-1,1.2E1,2.502736E0,1.8E1,2.2359264E0,1E0,2.502736E0,3.189898E0,-1.1495099E-1,5.9952814E-2,-7.625111E-2,1.16316214E-1,8.924282E-2,-1.2706098E-1,1.0520891E-1,6.208671E-2,-1.4878605E-1,-5.9010115E-2,-3.9785173E-2,4.710154E-2,-1.253973E-1,-1.2598883E-3,2.6325097E-2,-2.2035094E-1,6.217589E-2,-1.287851E-2,9.587812E-2,-1.0208672E-1,-1.0817397E-1,7.686636E-3,-1.9785894E-1,3.3658866E-3,-2.452147E-3,-8.904871E-2,-8.618898E-3,-1.9378369E-1,-6.898516E-2,-1.7219941E-1,-7.039187E-3,-1.019898E-1,-1.1899854E-1,-2.9650388E-2,-2.0993662E-1,-1.6026632E-1,-1.7362628E-2,-1.423541E-1,1.1156253E-1,6.522257E-2,-1.8563982E-2,7.790545E-2,1.0721169E-1,6.4450293E-3,-4.226632E-2,-1.546014E-1,1.4176427E-1,6.2474072E-2,-3.8236782E-2,6.643343E-2,-1.879996E-1,-1.9127378E-2,8.093294E-2,1.6670004E-2,-5.506068E-2,-1.2571666E-1,-1.2162536E-1,2.6711022E-2,-1.9038403E-1,-1.101492E-1,-9.578054E-2,-1.57898E-1,2.3481125E-2,-4.1037735E-2,-1.2033407E-1,2.3824306E-2,-1.1933499E-2,-1.0882854E-1,-1.7896298E-1,-7.5982146E-2,-1.5285078E-1,-1.8281692E-1,-1.9686319E-1,-1.4246897E-1],"split_indices":[3,0,0,5,1,5,5,13,5,0,0,1,1,0,0,14,14,15,0,5,5,4,1,3,0,1,0,1,1,13,0,0,0,14,0,1,0,13,1,15,4,4,0,3,1,0,1,4,15,1,1,15,15,6,1,13,0,0,4,4,1,13,13,4,0,1,15,0,0,0,0,13,0,0,0,4,0,15,0,1,15,0,0,4,4,5,6,4,5,13,0,15,13,15,1,15,13,1,15,0,0,4,0,4,0,4,15,0,4,15,0,15,13,15,15,0,0,0,0,0,0,0,0,0,0,0,0,0,0,0,0,0,0,0,0,0,0,0,0,0,0,0,0,0,0,0,0,0,0,0,0,0,0,0,0,0,0,0,0,0,0,0,0,0,0,0,0,0,0,0,0,0,0,0,0,0,0,0,0,0,0,0,0,0,0,0,0,0,0],"split_type":[0,0,0,0,0,0,0,0,0,0,0,0,0,0,0,0,0,0,0,0,0,0,0,0,0,0,0,0,0,0,0,0,0,0,0,0,0,0,0,0,0,0,0,0,0,0,0,0,0,0,0,0,0,0,0,0,0,0,0,0,0,0,0,0,0,0,0,0,0,0,0,0,0,0,0,0,0,0,0,0,0,0,0,0,0,0,0,0,0,0,0,0,0,0,0,0,0,0,0,0,0,0,0,0,0,0,0,0,0,0,0,0,0,0,0,0,0,0,0,0,0,0,0,0,0,0,0,0,0,0,0,0,0,0,0,0,0,0,0,0,0,0,0,0,0,0,0,0,0,0,0,0,0,0,0,0,0,0,0,0,0,0,0,0,0,0,0,0,0,0,0,0,0,0,0,0,0,0,0,0,0,0,0,0,0,0,0,0,0],"sum_hessian":[3.6600094E4,2.7282504E4,9.317592E3,2.576583E4,1.5166737E3,2.183445E3,7.1341465E3,2.4361045E4,1.4047856E3,1.3170415E3,1.9963228E2,1.3411245E3,8.4232056E2,2.3209907E3,4.813156E3,2.2066557E4,2.2944873E3,1.2440247E3,1.6076105E2,8.918804E1,1.1044424E2,4.893685E2,8.5175604E2,1.9129309E1,8.231913E2,9.0608014E2,1.4149105E3,2.200297E4,6.358611E1,2.2550571E3,3.9430065E1,2.0150958E2,1.0425151E3,8.320218E1,5.985865E0,3.928258E1,7.116166E1,2.6629758E2,2.2307094E2,4.433056E2,4.0845047E2,1.2218142E1,6.911167E0,8.088734E0,8.979914E2,1.3960555E2,2.1863365E4,4.5073776E1,1.8512335E1,1.9949724E3,2.6008484E2,8.249757E1,1.1901202E2,8.690415E2,1.7347357E2,8.1460686E1,1.7414893E0,1.468577E1,2.4596811E1,2.5140079E2,1.489678E1,2.2944117E1,2.0012682E2,1.7164778E2,2.7165784E2,1.3709758E2,2.7135287E2,1.495851E0,1.072229E1,6.382435E0,1.706299E0,8.955019E2,2.4895525E0,1.05198425E2,3.4407116E1,1.3040996E4,8.82237E3,1.7036015E1,2.8037762E1,9.609021E0,8.903315E0,8.822474E2,1.112725E3,6.0352596E1,1.9973224E2,1.1825977E1,7.0671585E1,9.7094185E1,2.1917835E1,7.9687256E2,7.2168976E1,8.684552E1,8.6628044E1,6.653164E1,1.492905E1,2.9189239E0,2.1677887E1,1.3140334E2,1.1999745E2,1.3411382E1,1.4853979E0,2.1487103E1,1.4570136E0,1.585955E2,4.153131E1,3.5723595E1,1.3592418E2,3.7270584E1,2.3438724E2,1.0384183E2,3.3255753E1,2.0040855E2,7.094433E1,6.323048E2,2.6319705E2,1.2485636E0,1.240989E0,6.0944473E1,4.425395E1,1.2902673E4,1.3832257E2,8.4935E3,3.2887003E2,2.2367823E0,1.4799232E1,8.401456E0,1.2075653E0,6.694166E0,2.209148E0,8.510553E2,3.119207E1,1.01967535E3,9.304965E1,3.8925877E0,5.6460007E1,7.0772867E0,1.9265495E2,1.0099786E1,1.7261915E0,1.840341E1,5.2268177E1,3.1773E0,9.3916885E1,6.705803E0,1.5212031E1,7.342495E2,6.2623035E1,5.9174946E1,1.2994031E1,5.1620583E1,3.522494E1,5.8796562E1,2.7831486E1,5.1550213E1,1.4981425E1,8.444149E0,6.4849024E0,1.6965555E0,1.2223682E0,1.3789425E1,7.888462E0,1.0265442E2,2.8748913E1,3.6285322E0,1.1636892E2,1.1955414E1,1.4559683E0,1.6876183E1,4.61092E0,9.392555E1,6.466995E1,1.0680335E1,2.5043259E1,2.6940348E1,1.0898383E2,3.89364E1,1.9545084E2,4.152554E1,6.231629E1,2.7687742E1,5.5680075E0,9.1548815E0,1.9125368E2,6.0340435E1,1.0603893E1,1.8239671E2,4.4990808E2,2.4475493E2,1.8442131E1],"tree_param":{"num_deleted":"0","num_feature":"16","num_nodes":"189","size_leaf_vector":"1"}},{"base_weights":[5.078065E-4,5.181788E-1,-1.5764192E0,6.8599373E-1,-1.138965E0,-1.8338668E0,2.1451147E-1,7.44772E-1,1.1606485E-1,-6.797552E-1,-1.5114672E0,-1.8567954E-1,-1.1145135E0,6.93985E-1,-1.6422545E0,6.078283E-1,9.237537E-1,-1.5473799E0,2.005853E-1,-5.515375E-1,-1.799729E0,-1.7898859E0,-3.9831042E-1,8.155247E-1,-1.8256499E0,7.7314436E-1,-1.2447397E0,-9.19261E-1,-1.7352763E0,7.269082E-1,-1.2007339E0,9.3271035E-1,-1.0316076E0,9.060546E-2,-1.6873537E0,2.3183042E-1,-1.76369E-1,-9.756675E-1,-2.3603846E-1,-1.8337949E-1,8.034027E-3,-1.0731349E0,-1.8032237E0,-2.70784E-1,-1.6882029E-1,8.793492E-1,-9.830246E-2,-1.0861893E0,-1.8488991E-1,9.37148E-1,9.106363E-2,-7.25089E-1,-1.779422E-1,-1.7459254E-1,-3.191938E-1,-1.7844975E-1,-1.0095968E0,7.635117E-1,8.467353E-2,-1.0279005E0,-1.5328392E0,8.5217524E-1,9.749735E-1,-3.3292998E-2,-1.190721E0,2.2067095E-1,-8.464473E-3,-1.7870736E-1,-1.0778036E0,-4.155517E-2,4.6012175E-1,-4.128132E-1,-1.6342837E0,-1.459216E-1,-1.0773278E0,3.42559E-1,-1.5972216E-1,-1.854192E-1,-1.7070673E0,-7.697157E-2,-1.1583955E0,5.3081745E-1,1.0873073E0,-1.4954868E-1,-3.6280027E-1,9.466982E-1,-6.6033757E-1,1.8570846E-1,-1.5935479E-1,-1.0546123E0,-7.760786E-2,-1.5716985E-1,1.9340584E-1,4.244541E-2,-1.6043405E-1,1.0206239E0,7.092634E-1,-6.8507594E-1,8.1611186E-1,-3.6468422E-1,-1.0530691E0,-1.1622658E0,-1.6649277E0,9.195297E-1,-1.3892095E0,9.875026E-1,8.780167E-1,-1.3002541E0,-5.487315E-1,-1.1320983E-2,5.3703457E-2,-6.124837E-1,-1.692229E-1,1.6436963E-1,-1.5179592E0,5.4529E-1,-9.252831E-2,-2.2451393E-1,-9.4670784E-1,-1.0366949E0,-1.6934236E0,4.114617E-2,-3.6582604E-1,-1.2315558E0,-4.652858E-2,1.0956184E-1,-1.2016153E-1,-1.0559616E0,-1.7899346E-1,2.4439108E-1,-6.1942846E-1,-1.6551737E-1,-7.1771055E-1,7.2668886E-1,-1.2768494E-1,1.3300517E-1,7.876005E-1,-7.932057E-2,8.995049E-3,9.765061E-1,6.3910365E-1,-9.843484E-2,-5.3786277E-3,-4.1928732E-1,2.1789369E-1,-7.530474E-1,-1.4161338E-1,6.2943496E-2,-3.4570888E-1,6.1623186E-1,-2.3718174E-1,3.9766017E-1,-5.8330335E-2,-6.732651E-2,1.0776037E-1,6.60224E-2,7.9720214E-2,-8.026057E-2,2.0222463E-2,-5.0400455E-2,9.616872E-2,-1.3627613E-2,-1.0497152E-1,-1.1429975E-1,-8.95414E-2,-1.4120542E-1,-8.565294E-2,-1.784068E-1,-1.4040034E-1,9.314266E-2,5.096932E-2,-1.1572772E-1,-1.5456283E-1,9.734315E-2,1.0432827E-1,-1.3315229E-1,9.603644E-2,-1.06948905E-1,-1.719074E-1,-2.1990152E-2,-7.751932E-2,-8.483125E-2,-2.3913829E-2,1.846932E-2,-4.383862E-2,-1.18797615E-1,-1.6158825E-1,5.738474E-3,5.7350945E-2,-6.926956E-2,7.681018E-3,-1.7055647E-1,-1.4719519E-2,-1.0404505E-1,6.383481E-2,1.404576E-2,-1.1197183E-1,-1.5078504E-1,-1.7912336E-1,1.2060772E-2,-7.120719E-2,-4.5098826E-2,4.2068474E-3,-3.5941914E-2,-1.2864392E-1,-1.6071038E-1,-8.44297E-2,2.6598176E-2,-9.938704E-2,-1.6990589E-1,-1.5943749E-2,-2.7560448E-2,-1.4145081E-1,9.438252E-2,-4.5626502E-2,-4.9928628E-2,9.936598E-2,1.01180576E-1,8.693452E-2,-1.5719162E-1,8.644786E-2,-1.1461089E-1,2.6344998E-2,2.6049761E-2,-4.062055E-3,-9.022997E-2,1.1231079E-2,3.0226145E-2,-6.137687E-2,8.937385E-2,-3.9151806E-2,5.510735E-2,-6.7555524E-2,-2.5156049E-2,1.0809155E-1],"categories":[],"categories_nodes":[],"categories_segments":[],"categories_sizes":[],"default_left":[0,0,0,0,0,0,0,0,0,0,0,0,0,0,0,0,0,0,0,0,0,0,0,0,0,0,0,0,0,0,0,0,0,0,0,0,0,0,0,0,0,0,0,0,0,0,0,0,0,0,0,0,0,0,0,0,0,0,0,0,0,0,0,0,0,0,0,0,0,0,0,0,0,0,0,0,0,0,0,0,0,0,0,0,0,0,0,0,0,0,0,0,0,0,0,0,0,0,0,0,0,0,0,0,0,0,0,0,0,0,0,0,0,0,0,0,0,0,0,0,0,0,0,0,0,0,0,0,0,0,0,0,0,0,0,0,0,0,0,0,0,0,0,0,0,0,0,0,0,0,0,0,0,0,0,0,0,0,0,0,0,0,0,0,0,0,0,0,0,0,0,0,0,0,0,0,0,0,0,0,0,0,0,0,0,0,0,0,0,0,0,0,0,0,0,0,0,0,0,0,0,0,0,0,0,0,0,0,0,0,0,0,0,0,0,0,0,0,0,0,0,0,0,0,0,0,0,0,0,0,0,0,0,0,0],"id":2,"left_children":[1,3,5,7,9,11,13,15,17,19,21,-1,23,25,27,29,31,33,35,37,39,41,43,45,47,49,51,53,55,57,59,61,63,65,67,69,-1,71,73,-1,-1,75,77,79,-1,81,-1,83,-1,85,87,89,-1,-1,91,-1,93,95,97,99,101,103,105,-1,107,109,-1,-1,111,113,115,117,119,121,123,125,-1,-1,127,129,131,133,135,-1,137,139,141,143,-1,145,147,-1,149,151,-1,153,155,157,159,161,163,165,167,169,171,173,175,177,179,-1,-1,181,-1,183,185,187,189,191,193,195,197,199,201,203,-1,-1,-1,205,-1,207,209,-1,211,213,-1,-1,215,-1,-1,217,219,-1,-1,221,223,225,-1,-1,227,229,231,233,-1,-1,-1,-1,-1,-1,-1,-1,-1,-1,-1,-1,-1,-1,-1,-1,-1,-1,-1,-1,-1,-1,-1,-1,-1,-1,-1,-1,-1,-1,-1,-1,-1,-1,-1,-1,-1,-1,-1,-1,-1,-1,-1,-1,-1,-1,-1,-1,-1,-1,-1,-1,-1,-1,-1,-1,-1,-1,-1,-1,-1,-1,-1,-1,-1,-1,-1,-1,-1,-1,-1,-1,-1,-1,-1,-1,-1,-1,-1,-1,-1,-1,-1],"loss_changes":[2.9364354E4,7.5318525E3,4.099371E3,8.237129E2,4.2501147E2,1.2613672E2,9.9667444E2,5.458291E2,3.2371524E2,1.5945288E2,4.252224E2,0E0,3.3446198E2,1.374635E2,1.3859619E1,2.7213765E3,1.7016113E2,2.5680481E1,1.3481274E2,1.341141E2,7.469818E0,8.571777E0,4.498525E1,8.441952E0,1.0447998E0,9.557681E1,8.510849E0,1.3492071E1,5.430542E0,2.785625E2,4.3237183E1,3.1904297E1,4.5534897E0,2.4011263E-1,4.31192E0,1.3461035E2,0E0,1.5796487E2,4.3590275E1,0E0,0E0,1.7276974E1,2.1159668E0,4.336385E1,0E0,4.081623E0,0E0,1.7779541E0,0E0,1.1141296E1,2.6901947E1,4.0950365E0,0E0,0E0,1.1625556E1,0E0,9.556082E0,1.5567725E2,3.6101648E2,8.238037E0,1.1045898E1,5.0218213E2,6.786621E0,0E0,1.8094711E0,6.790757E-1,0E0,0E0,3.8091316E0,2.9888165E2,5.536783E1,2.3119217E1,5.20166E0,2.1503426E1,4.682213E0,9.358281E0,0E0,0E0,1.8930542E1,3.6479347E1,8.70689E0,1.0124447E1,1.8118248E0,0E0,8.805057E-1,5.6621094E0,8.678777E-1,3.1852732E0,0E0,3.3936405E-1,1.6738385E0,0E0,2.58642E0,1.6657946E0,0E0,1.8906921E2,3.9418457E1,3.27493E1,6.365956E1,3.051236E0,6.024475E0,4.365486E0,3.5009766E0,1.5234375E1,1.7373962E0,3.3574219E0,1.3410754E2,1.0531387E0,3.4778333E-1,0E0,0E0,7.842703E-1,0E0,1.0651892E1,1.9685974E0,1.3989868E1,1.6089422E1,1.9546228E1,9.609222E0,2.1418056E0,5.2182007E-1,1.70331E1,8.363132E0,1.6370544E0,0E0,0E0,0E0,4.010105E0,0E0,3.7821822E0,3.837107E1,0E0,7.532404E0,6.6137943E0,0E0,0E0,5.8101788E0,0E0,0E0,1.4776001E0,3.2983803E1,0E0,0E0,4.4543076E0,1.6794152E0,1.2851682E0,0E0,0E0,1.265137E0,2.3188534E0,2.9164977E0,2.3609693E0,0E0,0E0,0E0,0E0,0E0,0E0,0E0,0E0,0E0,0E0,0E0,0E0,0E0,0E0,0E0,0E0,0E0,0E0,0E0,0E0,0E0,0E0,0E0,0E0,0E0,0E0,0E0,0E0,0E0,0E0,0E0,0E0,0E0,0E0,0E0,0E0,0E0,0E0,0E0,0E0,0E0,0E0,0E0,0E0,0E0,0E0,0E0,0E0,0E0,0E0,0E0,0E0,0E0,0E0,0E0,0E0,0E0,0E0,0E0,0E0,0E0,0E0,0E0,0E0,0E0,0E0,0E0,0E0,0E0,0E0,0E0,0E0,0E0,0E0,0E0,0E0,0E0,0E0,0E0,0E0,0E0,0E0,0E0],"parents":[2147483647,0,0,1,1,2,2,3,3,4,4,5,5,6,6,7,7,8,8,9,9,10,10,12,12,13,13,14,14,15,15,16,16,17,17,18,18,19,19,20,20,21,21,22,22,23,23,24,24,25,25,26,26,27,27,28,28,29,29,30,30,31,31,32,32,33,33,34,34,35,35,37,37,38,38,41,41,42,42,43,43,45,45,47,47,49,49,50,50,51,51,54,54,56,56,57,57,58,58,59,59,60,60,61,61,62,62,64,64,65,65,68,68,69,69,70,70,71,71,72,72,73,73,74,74,75,75,78,78,79,79,80,80,81,81,82,82,84,84,85,85,86,86,87,87,89,89,90,90,92,92,93,93,95,95,96,96,97,97,98,98,99,99,100,100,101,101,102,102,103,103,104,104,105,105,106,106,107,107,108,108,111,111,113,113,114,114,115,115,116,116,117,117,118,118,119,119,120,120,121,121,122,122,123,123,127,127,129,129,130,130,132,132,133,133,136,136,139,139,140,140,143,143,144,144,145,145,148,148,149,149,150,150,151,151],"right_children":[2,4,6,8,10,12,14,16,18,20,22,-1,24,26,28,30,32,34,36,38,40,42,44,46,48,50,52,54,56,58,60,62,64,66,68,70,-1,72,74,-1,-1,76,78,80,-1,82,-1,84,-1,86,88,90,-1,-1,92,-1,94,96,98,100,102,104,106,-1,108,110,-1,-1,112,114,116,118,120,122,124,126,-1,-1,128,130,132,134,136,-1,138,140,142,144,-1,146,148,-1,150,152,-1,154,156,158,160,162,164,166,168,170,172,174,176,178,180,-1,-1,182,-1,184,186,188,190,192,194,196,198,200,202,204,-1,-1,-1,206,-1,208,210,-1,212,214,-1,-1,216,-1,-1,218,220,-1,-1,222,224,226,-1,-1,228,230,232,234,-1,-1,-1,-1,-1,-1,-1,-1,-1,-1,-1,-1,-1,-1,-1,-1,-1,-1,-1,-1,-1,-1,-1,-1,-1,-1,-1,-1,-1,-1,-1,-1,-1,-1,-1,-1,-1,-1,-1,-1,-1,-1,-1,-1,-1,-1,-1,-1,-1,-1,-1,-1,-1,-1,-1,-1,-1,-1,-1,-1,-1,-1,-1,-1,-1,-1,-1,-1,-1,-1,-1,-1,-1,-1,-1,-1,-1,-1,-1,-1,-1,-1,-1],"split_conditions":[2.5E1,1E0,2E1,1E0,1.6E1,1.8E1,3.5E1,1.1E1,5E0,5E0,1.2E1,-1.8567954E-1,2.7E1,1E0,3.7E1,1.6E1,1E0,1.1E1,1E0,6E0,1E0,3E0,5E0,1E0,2.9E1,1E0,5E0,2.8E1,3.5E1,1.4E1,2E1,1.3E1,1.7E1,6E0,4E0,1.2E1,-1.76369E-1,1.1E1,3.243243E-1,-1.8337949E-1,8.034027E-3,1.2E1,7E0,1E0,-1.6882029E-1,1.9E1,-9.830246E-2,2.5E1,-1.8488991E-1,1E0,1E0,1.0714286E-1,-1.779422E-1,-1.7459254E-1,3.1E1,-1.7844975E-1,4.5E1,5E0,9E0,3E0,6E0,2E1,2.3E1,-3.3292998E-2,1.7E1,7E0,-8.464473E-3,-1.7870736E-1,2E0,1.5E1,2E0,3.243243E-1,1.2E1,1.6049382E-1,1.2E1,4E0,-1.5972216E-1,-1.854192E-1,1.8E1,1.7E1,6.0606062E-2,2.4E1,2.6E1,-1.4954868E-1,2.8E1,3.1E1,2.2E1,2.1E1,-1.5935479E-1,2.9E1,2.6E1,-1.5716985E-1,3.2E1,3.8E1,-1.6043405E-1,6E0,9E0,1.8E1,1.6E1,1.9E1,8E0,4E0,8E0,1.7E1,2E1,1.7E1,1.6E1,2.1E1,2.3E1,-1.1320983E-2,5.3703457E-2,2.1E1,-1.692229E-1,2E0,1.7E1,1.6E1,1.8E1,2E0,5.405405E-1,6E0,1E1,1E0,1E1,5E0,-4.652858E-2,1.0956184E-1,-1.2016153E-1,1.2E1,-1.7899346E-1,1E0,1.4E1,-1.6551737E-1,2E0,1E0,-1.2768494E-1,1.3300517E-1,2.4E1,-7.932057E-2,8.995049E-3,2.7E1,2.4E1,-9.843484E-2,-5.3786277E-3,2.6E1,2.8E1,2.5E1,-1.4161338E-1,6.2943496E-2,4E0,1E0,3.4E1,3.8E1,-5.8330335E-2,-6.732651E-2,1.0776037E-1,6.60224E-2,7.9720214E-2,-8.026057E-2,2.0222463E-2,-5.0400455E-2,9.616872E-2,-1.3627613E-2,-1.0497152E-1,-1.1429975E-1,-8.95414E-2,-1.4120542E-1,-8.565294E-2,-1.784068E-1,-1.4040034E-1,9.314266E-2,5.096932E-2,-1.1572772E-1,-1.5456283E-1,9.734315E-2,1.0432827E-1,-1.3315229E-1,9.603644E-2,-1.06948905E-1,-1.719074E-1,-2.1990152E-2,-7.751932E-2,-8.483125E-2,-2.3913829E-2,1.846932E-2,-4.383862E-2,-1.18797615E-1,-1.6158825E-1,5.738474E-3,5.7350945E-2,-6.926956E-2,7.681018E-3,-1.7055647E-1,-1.4719519E-2,-1.0404505E-1,6.383481E-2,1.404576E-2,-1.1197183E-1,-1.5078504E-1,-1.7912336E-1,1.2060772E-2,-7.120719E-2,-4.5098826E-2,4.2068474E-3,-3.5941914E-2,-1.2864392E-1,-1.6071038E-1,-8.44297E-2,2.6598176E-2,-9.938704E-2,-1.6990589E-1,-1.5943749E-2,-2.7560448E-2,-1.4145081E-1,9.438252E-2,-4.5626502E-2,-4.9928628E-2,9.936598E-2,1.01180576E-1,8.693452E-2,-1.5719162E-1,8.644786E-2,-1.1461089E-1,2.6344998E-2,2.6049761E-2,-4.062055E-3,-9.022997E-2,1.1231079E-2,3.0226145E-2,-6.137687E-2,8.937385E-2,-3.9151806E-2,5.510735E-2,-6.7555524E-2,-2.5156049E-2,1.0809155E-1],"split_indices":[0,5,1,13,0,1,0,1,1,5,1,0,0,5,0,4,14,0,14,1,13,1,5,5,0,13,5,1,1,4,4,1,0,4,1,1,0,0,6,0,0,4,1,13,0,1,0,4,0,14,14,6,0,0,4,0,0,1,1,1,1,0,0,0,1,0,0,0,13,4,13,6,0,6,0,5,0,0,0,4,6,4,0,0,0,0,1,1,0,0,0,0,1,1,0,0,1,0,0,4,1,1,1,4,4,1,1,0,0,0,0,0,0,13,4,0,0,1,6,4,4,13,1,4,0,0,0,4,0,14,1,0,13,13,0,0,4,0,0,4,1,0,0,0,4,4,0,0,5,13,4,4,0,0,0,0,0,0,0,0,0,0,0,0,0,0,0,0,0,0,0,0,0,0,0,0,0,0,0,0,0,0,0,0,0,0,0,0,0,0,0,0,0,0,0,0,0,0,0,0,0,0,0,0,0,0,0,0,0,0,0,0,0,0,0,0,0,0,0,0,0,0,0,0,0,0,0,0,0,0,0,0,0,0,0],"split_type":[0,0,0,0,0,0,0,0,0,0,0,0,0,0,0,0,0,0,0,0,0,0,0,0,0,0,0,0,0,0,0,0,0,0,0,0,0,0,0,0,0,0,0,0,0,0,0,0,0,0,0,0,0,0,0,0,0,0,0,0,0,0,0,0,0,0,0,0,0,0,0,0,0,0,0,0,0,0,0,0,0,0,0,0,0,0,0,0,0,0,0,0,0,0,0,0,0,0,0,0,0,0,0,0,0,0,0,0,0,0,0,0,0,0,0,0,0,0,0,0,0,0,0,0,0,0,0,0,0,0,0,0,0,0,0,0,0,0,0,0,0,0,0,0,0,0,0,0,0,0,0,0,0,0,0,0,0,0,0,0,0,0,0,0,0,0,0,0,0,0,0,0,0,0,0,0,0,0,0,0,0,0,0,0,0,0,0,0,0,0,0,0,0,0,0,0,0,0,0,0,0,0,0,0,0,0,0,0,0,0,0,0,0,0,0,0,0,0,0,0,0,0,0,0,0,0,0,0,0,0,0,0,0,0,0],"sum_hessian":[3.5969207E4,2.7080076E4,8.889131E3,2.4590447E4,2.489629E3,7.7718916E3,1.117239E3,2.229119E4,2.2992568E3,1.1163052E3,1.3733236E3,7.530292E3,2.4159975E2,8.884424E2,2.2879665E2,1.2631151E4,9.660039E3,1.10340515E2,2.1889163E3,1.0029744E3,1.1333081E2,1.0980703E3,2.7525323E2,6.501122E1,1.7658852E2,8.541674E2,3.427499E1,2.7322231E1,2.0147441E2,1.1851425E4,7.797272E2,9.616513E3,4.3526073E1,8.714573E0,1.01625946E2,2.1555112E3,3.3405056E1,4.2694016E2,5.7603424E2,1.11338036E2,1.9927737E0,2.1548574E1,1.0765217E3,2.5158952E2,2.3663713E1,6.327682E1,1.7344052E0,6.8374333E0,1.6975108E2,6.8829553E2,1.6587186E2,1.857668E1,1.5698313E1,1.0688287E1,1.6633945E1,1.873105E2,1.4163906E1,1.1212208E4,6.392164E2,5.15531E2,2.641962E2,3.3169731E3,6.2995396E3,8.647359E0,3.4878716E1,4.853369E0,3.8612037E0,8.567764E1,1.5948302E1,9.812516E2,1.1742596E3,2.3108305E2,1.958571E2,5.2136084E2,5.467344E1,5.9155397E0,1.5633035E1,6.9163416E2,3.8488757E2,2.0739171E2,4.4197826E1,2.4973867E1,3.830295E1,3.6850677E0,3.1523654E0,6.846101E2,3.6854215E0,1.5789099E2,7.9808683E0,1.1894437E1,6.682242E0,4.230603E0,1.2403342E1,5.450733E0,8.713173E0,1.9503983E3,9.26181E3,3.114825E2,3.277339E2,1.9415133E1,4.9611588E2,7.199992E1,1.9219626E2,3.2207776E3,9.619579E1,5.570512E3,7.2902716E2,2.8919298E1,5.9594164E0,2.6737382E0,2.1796312E0,1.0211621E1,5.7366815E0,8.6192175E2,1.1932982E2,1.0174716E3,1.5678798E2,1.718824E2,5.9200665E1,1.9306026E1,1.7655107E2,2.8215274E2,2.392081E2,4.286078E1,1.1812661E1,4.1716175E0,1.7439221E0,4.500636E1,3.3988123E2,1.3058182E2,7.680988E1,1.9481117E1,2.4716711E1,2.3071888E1,1.9019797E0,1.9263138E1,1.9039816E1,1.230565E0,1.9218005E0,6.2214557E2,6.2464554E1,1.9962127E0,1.6892087E0,7.367852E0,1.5052315E2,8.165848E0,3.7285888E0,1.466637E0,5.2156053E0,6.0405416E0,6.3628E0,3.7094936E0,1.7412393E0,6.3121147E1,1.8872772E3,5.9514624E3,3.3103474E3,2.751343E2,3.634819E1,3.2306602E1,2.9542728E2,1.5459459E1,3.9556732E0,3.119346E2,1.8418126E2,3.7634113E1,3.4365814E1,1.27940155E2,6.42561E1,3.128684E3,9.209337E1,4.2128185E1,5.4067608E1,4.463101E3,1.107411E3,2.5648958E1,7.033782E2,2.0936884E1,7.9824147E0,3.2342334E0,2.725183E0,5.4787188E0,4.732902E0,8.344786E2,2.744316E1,3.0312864E1,8.901695E1,5.579689E1,9.6167474E2,3.3822853E1,1.2296512E2,7.4831324E0,1.6439926E2,5.6219353E1,2.9813097E0,1.2263514E0,1.8079674E1,6.66028E1,1.0994827E2,2.5598698E2,2.6165745E1,1.9780396E2,4.1404133E1,2.9844415E0,3.9876335E1,1.0659076E1,3.4347282E1,1.291157E2,1.466102E0,2.2143618E1,5.4666267E1,1.5975843E1,8.740868E0,1.9664524E1,3.407363E0,2.431504E0,1.660831E1,4.6163687E2,1.6050867E2,5.2255077E0,5.7239048E1,3.239975E0,4.1278768E0,1.2921968E2,2.1303463E1,6.9282174E0,1.2376307E0,1.4889165E0,3.7266886E0,4.8250036E0,1.2155385E0,2.1820643E0,4.1807356E0,2.226101E0,1.4833928E0],"tree_param":{"num_deleted":"0","num_feature":"16","num_nodes":"235","size_leaf_vector":"1"}},{"base_weights":[-5.5015826E-4,4.7689986E-1,-1.4537851E0,6.3321537E-1,-1.0500902E0,-1.6724772E0,-5.0214833E-1,6.865817E-1,1.21568635E-1,-6.2576324E-1,-1.3993372E0,-1.6970724E0,-1.3485483E0,2.9205787E-1,-1.6162875E0,6.3411903E-1,1.0887401E0,-1.1464103E0,2.0585491E-1,-1.0150131E0,-1.8124005E-1,-1.6305401E0,-4.3173882E-1,-1.7002604E0,4.5346966E-1,-4.2295203E-1,-1.6650735E-1,4.272109E-1,-1.4282933E0,-1.0734408E0,-1.6848503E0,6.68871E-1,-9.6750766E-1,1.2939467E0,1.0360895E0,2.7412224E-1,-1.5640678E0,1.3768849E-1,1.0294925E0,-3.977816E-1,-1.4107226E0,-5.0480075E-2,-1.591651E0,-1.6654607E0,1.6002944E0,1.23988315E-1,-6.814582E-1,-1.7089403E0,-1.5257686E0,1.2897576E-1,-1.2867017E-1,-1.588375E-1,-1.6648076E-1,6.273009E-1,-2.5883073E-1,-7.6264673E-1,-1.5185947E0,-7.015459E-1,-1.6722175E-1,-1.5156149E0,-1.7190968E-1,5.1743275E-1,7.9553103E-1,1.8055086E-1,-1.0606743E0,3.4506716E-2,1.2970276E0,-1.0165617E0,1.0438378E0,1.6959146E-1,7.9116946E-1,-1.6626344E0,5.249735E-1,1.7804447E-1,-1.2255524E0,1.2537066E0,4.4495246E-1,-1.17082365E-1,-9.872437E-1,-1.5644703E0,7.8069097E-1,1.5155818E-1,-2.7996898E-1,-1.6497961E0,-1.1063118E-2,-9.832084E-1,-1.6805937E0,1.729578E-1,2.513953E-2,2.3000419E-1,-5.484788E-1,-4.919501E-1,-1.371941E0,-1.6534956E0,-1.7190209E-1,-6.1669046E-1,-1.6613717E0,-3.4953886E-1,6.293778E-1,7.346286E-1,7.131839E-2,-3.7337643E-1,6.83947E-1,-1.2081983E-1,-3.3434486E-1,-1.6566151E-1,-1.2254602E0,-1.0760365E0,-2.2868742E-1,-1.252959E0,-1.7013235E-1,6.526245E-1,-7.4250585E-1,4.8981574E-1,8.1064564E-1,5.372543E-2,-1.0945643E-3,-1.413986E0,-8.324228E-1,1.3128358E0,1.1125975E-1,-1.4748948E0,8.923474E-2,1.0197136E0,1.5342763E-1,2.7251592E-1,-6.6507345E-1,9.844078E-2,8.0724135E-3,-1.7238984E-1,-1.2014213E0,1.422458E-1,-1.2102729E-1,-4.016817E-3,3.569476E-1,-9.921887E-1,-1.7677526E-1,1.3516689E-2,1.2662649E-1,1.7258027E-1,1.0397003E-1,-8.0340356E-1,2.4414854E-2,-6.772882E-1,-1.2123113E0,-1.29323E0,-1.6565219E-1,-9.643914E-2,1.0416728E0,2.1375573E-1,-4.4365352E-1,-2.4295853E-1,-8.101978E-1,-7.220894E-1,-1.6942136E-1,-1.6358797E-1,-2.473449E-1,-1.6897233E0,-5.139924E-1,2.9276308E-1,-1.2028717E-1,-9.651642E-2,-2.2205395E-1,-9.572987E-1,-5.7580553E-2,-1.523474E-1,-5.350955E-1,-1.6760672E0,-9.025225E-1,2.7054906E-1,-8.242265E-1,-1.2598681E0,-1.7091398E-1,1.8919769E-1,-6.718195E-1,1.0506334E-1,3.2361963E-1,4.6092394E-1,8.2143044E-1,-1.0323262E0,3.75827E-1,-2.6462814E-1,-1.7278658E-1,9.857693E-1,-1.2144376E-1,2.2757742E-1,-1.0007515E-1,-4.09326E-1,-1.515448E-1,-1.2029581E0,-3.161448E-1,1.7011264E-1,-1.0445142E0,-1.5659641E0,-9.01802E-1,4.175462E-2,7.534651E-2,-1.1008457E-1,8.9384767E-4,1.5018798E-2,8.2941934E-2,8.2604E-2,5.9258487E-2,-1.5445839E-2,6.4311097E-3,-8.035942E-2,-1.7911515E-1,-9.101952E-2,-4.1102283E-2,8.5889846E-2,1.318336E-1,-3.3121478E-2,-1.7055193E-1,1.0565197E-1,-3.2783415E-2,3.901732E-2,-1.6351601E-2,-1.0965729E-1,6.9137774E-3,-8.1987314E-2,-1.5628646E-1,9.588621E-3,-1.3521945E-1,4.0872123E-2,-3.9549475E-3,-1.2494433E-1,-8.143784E-2,3.2500148E-2,-5.8289647E-2,-9.291163E-2,3.421476E-2,-6.1352916E-2,9.380073E-3,-1.1435082E-1,-1.2713236E-2,-1.2498819E-1,-2.159611E-2,-1.5994066E-1,-7.145197E-2,3.4859307E-2,1.22548856E-1,-9.268403E-3,2.8223902E-2,3.875951E-2,-8.1559226E-2,-1.546725E-3,-3.5643198E-2,-1.1656391E-1,-3.347295E-2,-2.1849582E-2,-9.557102E-2,6.921484E-2,-9.924489E-2,-1.7073223E-1,-1.4400794E-1,-1.12658076E-1,6.423326E-2,3.842123E-2,-5.5993296E-2,6.1802394E-3,-5.037278E-2,-7.5255446E-2,-1.4539908E-1,3.3359614E-3,-1.2405016E-1,3.67148E-2,-1.06174566E-1,-1.5846598E-1,-1.720647E-1,5.1168513E-2,-1.3751309E-1,4.627652E-2,-5.1886905E-2,-1.2677938E-2,-1.1689234E-1,1.1081783E-2,-1.4220576E-1,7.051001E-2,1.1199668E-2,-5.8413178E-2,-1.3726379E-1,8.143223E-3,1.19521156E-1,5.5159908E-2,-1.5345104E-1,8.311187E-2,-8.859976E-2,-1.1499001E-1,-1.5875718E-2,-1.1284072E-2,6.259233E-2,4.575932E-3,-4.6020556E-2,1.12473086E-1,-3.0146033E-2,4.966336E-2,-1.8855816E-2,1.1400825E-2,-1.04282156E-1,-1.4166734E-1,-9.0463504E-2,6.0546882E-2,-7.279398E-2,3.8589984E-2,-2.2354806E-2,-1.2869838E-1,-2.843462E-2,-1.6288607E-1,-3.384749E-2,-1.0263176E-1,-2.638846E-3],"categories":[],"categories_nodes":[],"categories_segments":[],"categories_sizes":[],"default_left":[0,0,0,0,0,0,0,0,0,0,0,0,0,0,0,0,0,0,0,0,0,0,0,0,0,0,0,0,0,0,0,0,0,0,0,0,0,0,0,0,0,0,0,0,0,0,0,0,0,0,0,0,0,0,0,0,0,0,0,0,0,0,0,0,0,0,0,0,0,0,0,0,0,0,0,0,0,0,0,0,0,0,0,0,0,0,0,0,0,0,0,0,0,0,0,0,0,0,0,0,0,0,0,0,0,0,0,0,0,0,0,0,0,0,0,0,0,0,0,0,0,0,0,0,0,0,0,0,0,0,0,0,0,0,0,0,0,0,0,0,0,0,0,0,0,0,0,0,0,0,0,0,0,0,0,0,0,0,0,0,0,0,0,0,0,0,0,0,0,0,0,0,0,0,0,0,0,0,0,0,0,0,0,0,0,0,0,0,0,0,0,0,0,0,0,0,0,0,0,0,0,0,0,0,0,0,0,0,0,0,0,0,0,0,0,0,0,0,0,0,0,0,0,0,0,0,0,0,0,0,0,0,0,0,0,0,0,0,0,0,0,0,0,0,0,0,0,0,0,0,0,0,0,0,0,0,0,0,0,0,0,0,0,0,0,0,0,0,0,0,0,0,0,0,0,0,0,0,0,0,0,0,0,0,0,0,0,0,0,0,0,0,0,0,0,0,0,0,0,0,0,0,0,0,0,0,0,0,0,0,0],"id":3,"left_children":[1,3,5,7,9,11,13,15,17,19,21,23,25,27,29,31,33,35,37,39,41,43,45,47,49,51,-1,53,55,57,59,61,63,65,67,69,71,73,75,77,79,81,83,85,87,89,91,93,95,-1,-1,97,-1,99,101,103,105,107,-1,109,-1,111,113,115,117,-1,119,121,123,125,127,129,131,133,135,137,139,141,143,145,147,149,151,153,-1,155,157,-1,-1,159,161,163,165,167,-1,169,171,173,175,177,179,181,183,-1,185,-1,187,189,191,193,-1,195,197,199,201,-1,203,205,207,209,-1,211,-1,213,-1,215,217,-1,-1,-1,219,-1,-1,221,223,225,-1,-1,-1,227,-1,229,231,233,235,237,-1,-1,239,241,243,245,247,249,-1,-1,251,253,255,257,-1,-1,259,261,263,-1,265,267,269,271,273,275,-1,277,279,-1,281,283,285,287,289,291,-1,293,-1,295,-1,297,-1,299,301,303,305,307,309,-1,-1,-1,-1,-1,-1,-1,-1,-1,-1,-1,-1,-1,-1,-1,-1,-1,-1,-1,-1,-1,-1,-1,-1,-1,-1,-1,-1,-1,-1,-1,-1,-1,-1,-1,-1,-1,-1,-1,-1,-1,-1,-1,-1,-1,-1,-1,-1,-1,-1,-1,-1,-1,-1,-1,-1,-1,-1,-1,-1,-1,-1,-1,-1,-1,-1,-1,-1,-1,-1,-1,-1,-1,-1,-1,-1,-1,-1,-1,-1,-1,-1,-1,-1,-1,-1,-1,-1,-1,-1,-1,-1,-1,-1,-1,-1,-1,-1,-1,-1,-1,-1,-1,-1,-1,-1,-1,-1,-1,-1,-1,-1,-1,-1,-1,-1],"loss_changes":[2.4494508E4,6.343271E3,1.8160371E3,6.5810547E2,3.6486035E2,5.4265625E1,1.4452463E3,4.5985156E2,2.4369348E2,1.929208E2,3.0196143E2,4.5976562E1,1.4748102E2,2.224494E2,2.348816E1,1.0755337E3,2.5859863E1,8.4759476E1,1.1983121E2,1.44711E2,9.623261E1,1.25826904E2,3.648371E1,7.3652344E0,1.7011862E1,4.245018E1,0E0,1.21698166E2,3.0330048E0,1.6412903E1,8.8183594E-1,3.6215723E2,4.410266E1,1.043335E0,3.3005127E1,1.6573076E0,2.3521423E1,1.08855255E2,2.0828888E1,3.856053E1,1.2320007E2,2.224953E1,3.6302643E0,9.502686E0,1.6897621E0,5.983902E0,2.3025337E1,6.582031E-1,3.8586365E1,0E0,0E0,1.6528498E1,0E0,4.086789E1,2.1921373E1,1.5688453E0,4.131012E-1,8.685751E0,0E0,3.2199707E0,0E0,1.4673792E3,4.715674E1,2.0525618E0,2.945691E1,0E0,2.0568848E-2,8.367746E0,2.2115967E1,2.6592543E0,6.483412E-1,9.0356445E-1,1.0623331E1,6.2498684E1,5.4459305E0,1.477829E0,7.4000807E0,1.55069895E1,4.4296875E0,6.312805E0,1.2118093E1,9.548485E0,4.2106247E0,5.2919006E-1,0E0,1.2013062E1,1.0374023E1,0E0,0E0,6.798068E0,1.3478241E0,2.8986652E1,4.060135E0,1.5266113E1,0E0,8.195871E0,3.198059E0,1.5406631E1,2.4283571E0,1.327475E1,3.8049923E1,2.5988617E1,1.3853153E1,0E0,2.7193244E0,0E0,4.8641586E0,2.3083763E0,7.843548E0,3.9997406E0,0E0,1.8406445E2,2.2484811E2,5.608741E1,3.2424805E1,0E0,2.3042916E-1,3.255429E1,7.268875E0,2.1972656E-2,0E0,1.2487888E0,0E0,9.510925E1,0E0,1.4175649E0,1.1710796E0,0E0,0E0,0E0,8.7607E-1,0E0,0E0,1.2834972E2,1.9883156E1,9.0641785E-1,0E0,0E0,0E0,4.022949E0,0E0,4.2477684E0,5.953102E0,8.557167E0,1.3149872E0,1.4868454E1,0E0,0E0,2.3383923E0,4.892317E0,7.886201E0,5.450838E0,2.014001E0,2.2485065E-1,0E0,0E0,1.0019047E1,2.1408691E0,7.5478106E0,5.6328278E0,0E0,0E0,6.4988583E-1,5.9533157E0,8.149931E0,0E0,3.923035E0,1.1848145E0,2.1456688E1,1.5998621E0,8.3473835E0,7.5985794E0,0E0,1.2640419E0,2.5955276E0,0E0,2.8365803E0,2.6295023E1,7.932678E0,2.3338947E0,1.0894534E1,1.0181629E1,0E0,3.846836E0,0E0,5.8903134E-1,0E0,2.5872593E0,0E0,2.1868134E-1,2.4697661E0,1.503662E0,1.0857582E0,1.3537292E0,2.7593021E0,0E0,0E0,0E0,0E0,0E0,0E0,0E0,0E0,0E0,0E0,0E0,0E0,0E0,0E0,0E0,0E0,0E0,0E0,0E0,0E0,0E0,0E0,0E0,0E0,0E0,0E0,0E0,0E0,0E0,0E0,0E0,0E0,0E0,0E0,0E0,0E0,0E0,0E0,0E0,0E0,0E0,0E0,0E0,0E0,0E0,0E0,0E0,0E0,0E0,0E0,0E0,0E0,0E0,0E0,0E0,0E0,0E0,0E0,0E0,0E0,0E0,0E0,0E0,0E0,0E0,0E0,0E0,0E0,0E0,0E0,0E0,0E0,0E0,0E0,0E0,0E0,0E0,0E0,0E0,0E0,0E0,0E0,0E0,0E0,0E0,0E0,0E0,0E0,0E0,0E0,0E0,0E0,0E0,0E0,0E0,0E0,0E0,0E0,0E0,0E0,0E0,0E0,0E0,0E0,0E0,0E0,0E0,0E0,0E0,0E0,0E0,0E0,0E0,0E0,0E0,0E0],"parents":[2147483647,0,0,1,1,2,2,3,3,4,4,5,5,6,6,7,7,8,8,9,9,10,10,11,11,12,12,13,13,14,14,15,15,16,16,17,17,18,18,19,19,20,20,21,21,22,22,23,23,24,24,25,25,27,27,28,28,29,29,30,30,31,31,32,32,33,33,34,34,35,35,36,36,37,37,38,38,39,39,40,40,41,41,42,42,43,43,44,44,45,45,46,46,47,47,48,48,51,51,53,53,54,54,55,55,56,56,57,57,59,59,61,61,62,62,63,63,64,64,66,66,67,67,68,68,69,69,70,70,71,71,72,72,73,73,74,74,75,75,76,76,77,77,78,78,79,79,80,80,81,81,82,82,83,83,85,85,86,86,89,89,90,90,91,91,92,92,93,93,95,95,96,96,97,97,98,98,99,99,100,100,101,101,102,102,104,104,106,106,107,107,108,108,109,109,111,111,112,112,113,113,114,114,116,116,117,117,118,118,119,119,121,121,123,123,125,125,126,126,130,130,133,133,134,134,135,135,139,139,141,141,142,142,143,143,144,144,145,145,148,148,149,149,150,150,151,151,152,152,153,153,156,156,157,157,158,158,159,159,162,162,163,163,164,164,166,166,167,167,168,168,169,169,170,170,171,171,173,173,174,174,176,176,177,177,178,178,179,179,180,180,181,181,183,183,185,185,187,187,189,189,190,190,191,191,192,192,193,193,194,194],"right_children":[2,4,6,8,10,12,14,16,18,20,22,24,26,28,30,32,34,36,38,40,42,44,46,48,50,52,-1,54,56,58,60,62,64,66,68,70,72,74,76,78,80,82,84,86,88,90,92,94,96,-1,-1,98,-1,100,102,104,106,108,-1,110,-1,112,114,116,118,-1,120,122,124,126,128,130,132,134,136,138,140,142,144,146,148,150,152,154,-1,156,158,-1,-1,160,162,164,166,168,-1,170,172,174,176,178,180,182,184,-1,186,-1,188,190,192,194,-1,196,198,200,202,-1,204,206,208,210,-1,212,-1,214,-1,216,218,-1,-1,-1,220,-1,-1,222,224,226,-1,-1,-1,228,-1,230,232,234,236,238,-1,-1,240,242,244,246,248,250,-1,-1,252,254,256,258,-1,-1,260,262,264,-1,266,268,270,272,274,276,-1,278,280,-1,282,284,286,288,290,292,-1,294,-1,296,-1,298,-1,300,302,304,306,308,310,-1,-1,-1,-1,-1,-1,-1,-1,-1,-1,-1,-1,-1,-1,-1,-1,-1,-1,-1,-1,-1,-1,-1,-1,-1,-1,-1,-1,-1,-1,-1,-1,-1,-1,-1,-1,-1,-1,-1,-1,-1,-1,-1,-1,-1,-1,-1,-1,-1,-1,-1,-1,-1,-1,-1,-1,-1,-1,-1,-1,-1,-1,-1,-1,-1,-1,-1,-1,-1,-1,-1,-1,-1,-1,-1,-1,-1,-1,-1,-1,-1,-1,-1,-1,-1,-1,-1,-1,-1,-1,-1,-1,-1,-1,-1,-1,-1,-1,-1,-1,-1,-1,-1,-1,-1,-1,-1,-1,-1,-1,-1,-1,-1,-1,-1,-1],"split_conditions":[2.5E1,1E0,3.2536607E0,1E0,1.6E1,3.0975585E0,3.4E1,5E0,2.1556392E0,2.4056392E0,3.0226297E0,9E0,2.9E1,1E0,3.7E1,4E0,1.2E1,1.4E1,5E0,1E1,5E0,8E0,1.8E1,5E0,3.5E1,1E0,-1.6650735E-1,1E0,2.6E1,1E0,4.2E1,2.8073905E0,1E1,7E0,1E0,5E0,5E0,4E0,6E0,3E-1,5E0,1.6049382E-1,1E0,1.0612781E0,1E1,1E0,1E0,2.8E1,2.9E1,1.2897576E-1,-1.2867017E-1,5E0,-1.6648076E-1,3E1,5E0,3.3931272E0,3.640224E0,3.5225716E0,-1.6722175E-1,1E0,-1.7190968E-1,1.7E1,1.3E1,9E0,2.4193819E0,3.4506716E-2,2.0048862E0,8E0,9E0,1.2E1,6E0,1.9312953E0,6E0,3.0975585E0,2.2E1,2.2464395E0,3.1841838E0,1.5849625E0,9E0,1.1E1,8.064516E-2,1E0,1E0,3.75E-1,-1.1063118E-2,3E0,6E0,1.729578E-1,2.513953E-2,3E-1,3E0,3.3239348E0,1.4705883E-1,3.0286393E0,-1.7190209E-1,1.9312953E0,3.4E1,2.6E1,6E0,3.3931272E0,3.3794706E0,4E0,7E0,-1.2081983E-1,1E0,-1.6566151E-1,2.9E1,5E0,3.6E1,3.5068905E0,-1.7013235E-1,3E0,2.5868878E0,3E0,2.3E1,5.372543E-2,1.5219281E0,1.5E1,3.1971598E0,9.1829586E-1,1.1125975E-1,1.6E1,8.923474E-2,7E0,1.5342763E-1,1.9609641E0,2E0,9.844078E-2,8.0724135E-3,-1.7238984E-1,2E0,1.422458E-1,-1.2102729E-1,2.2E1,2E0,2.9329994E0,-1.7677526E-1,1.3516689E-2,1.2662649E-1,7E0,1.0397003E-1,5E0,7E0,7E0,4E0,2.1556392E0,-1.6565219E-1,-9.643914E-2,9.52381E-2,3E0,1.3E1,3E0,3E0,2.8073905E0,-1.6942136E-1,-1.6358797E-1,1.8E1,2.9182959E0,2.8073905E0,4E0,-1.2028717E-1,-9.651642E-2,1.7E1,2.2E1,5E0,-1.523474E-1,3.4528196E0,1E0,3.0565648E0,1E0,6E0,1.6577427E0,-1.7091398E-1,3.121928E0,3.25E0,1.0506334E-1,7E0,3.3927474E0,7E0,5E0,3.5225716E0,2.7E1,-1.7278658E-1,3.1E1,-1.2144376E-1,3.6143694E0,-1.0007515E-1,1.4705883E-1,-1.515448E-1,3.4058223E0,3.321928E0,1E0,2E0,3E0,5E0,4.175462E-2,7.534651E-2,-1.1008457E-1,8.9384767E-4,1.5018798E-2,8.2941934E-2,8.2604E-2,5.9258487E-2,-1.5445839E-2,6.4311097E-3,-8.035942E-2,-1.7911515E-1,-9.101952E-2,-4.1102283E-2,8.5889846E-2,1.318336E-1,-3.3121478E-2,-1.7055193E-1,1.0565197E-1,-3.2783415E-2,3.901732E-2,-1.6351601E-2,-1.0965729E-1,6.9137774E-3,-8.1987314E-2,-1.5628646E-1,9.588621E-3,-1.3521945E-1,4.0872123E-2,-3.9549475E-3,-1.2494433E-1,-8.143784E-2,3.2500148E-2,-5.8289647E-2,-9.291163E-2,3.421476E-2,-6.1352916E-2,9.380073E-3,-1.1435082E-1,-1.2713236E-2,-1.2498819E-1,-2.159611E-2,-1.5994066E-1,-7.145197E-2,3.4859307E-2,1.22548856E-1,-9.268403E-3,2.8223902E-2,3.875951E-2,-8.1559226E-2,-1.546725E-3,-3.5643198E-2,-1.1656391E-1,-3.347295E-2,-2.1849582E-2,-9.557102E-2,6.921484E-2,-9.924489E-2,-1.7073223E-1,-1.4400794E-1,-1.12658076E-1,6.423326E-2,3.842123E-2,-5.5993296E-2,6.1802394E-3,-5.037278E-2,-7.5255446E-2,-1.4539908E-1,3.3359614E-3,-1.2405016E-1,3.67148E-2,-1.06174566E-1,-1.5846598E-1,-1.720647E-1,5.1168513E-2,-1.3751309E-1,4.627652E-2,-5.1886905E-2,-1.2677938E-2,-1.1689234E-1,1.1081783E-2,-1.4220576E-1,7.051001E-2,1.1199668E-2,-5.8413178E-2,-1.3726379E-1,8.143223E-3,1.19521156E-1,5.5159908E-2,-1.5345104E-1,8.311187E-2,-8.859976E-2,-1.1499001E-1,-1.5875718E-2,-1.1284072E-2,6.259233E-2,4.575932E-3,-4.6020556E-2,1.12473086E-1,-3.0146033E-2,4.966336E-2,-1.8855816E-2,1.1400825E-2,-1.04282156E-1,-1.4166734E-1,-9.0463504E-2,6.0546882E-2,-7.279398E-2,3.8589984E-2,-2.2354806E-2,-1.2869838E-1,-2.843462E-2,-1.6288607E-1,-3.384749E-2,-1.0263176E-1,-2.638846E-3],"split_indices":[0,5,15,13,0,15,0,2,15,15,15,2,0,5,0,2,0,0,2,0,5,2,0,2,0,5,0,13,0,5,0,15,0,0,15,2,2,2,2,6,2,6,13,15,2,13,13,0,0,0,0,2,0,0,2,15,15,15,0,5,0,0,0,0,15,0,15,2,2,0,2,15,2,15,0,15,15,15,0,0,6,13,13,6,0,2,2,0,0,6,2,15,6,15,0,15,0,0,2,15,15,2,2,0,13,0,0,2,0,15,0,2,15,2,0,0,15,0,15,15,0,0,0,2,0,15,15,0,0,0,13,0,0,0,13,15,0,0,0,2,0,2,0,0,2,15,0,0,6,2,0,5,2,15,0,0,0,15,15,2,0,0,0,0,5,0,15,5,15,5,2,15,0,15,15,0,2,15,2,2,15,0,0,0,0,15,0,6,0,15,15,13,13,13,2,0,0,0,0,0,0,0,0,0,0,0,0,0,0,0,0,0,0,0,0,0,0,0,0,0,0,0,0,0,0,0,0,0,0,0,0,0,0,0,0,0,0,0,0,0,0,0,0,0,0,0,0,0,0,0,0,0,0,0,0,0,0,0,0,0,0,0,0,0,0,0,0,0,0,0,0,0,0,0,0,0,0,0,0,0,0,0,0,0,0,0,0,0,0,0,0,0,0,0,0,0,0,0,0,0,0,0,0,0,0,0,0,0,0,0,0],"split_type":[0,0,0,0,0,0,0,0,0,0,0,0,0,0,0,0,0,0,0,0,0,0,0,0,0,0,0,0,0,0,0,0,0,0,0,0,0,0,0,0,0,0,0,0,0,0,0,0,0,0,0,0,0,0,0,0,0,0,0,0,0,0,0,0,0,0,0,0,0,0,0,0,0,0,0,0,0,0,0,0,0,0,0,0,0,0,0,0,0,0,0,0,0,0,0,0,0,0,0,0,0,0,0,0,0,0,0,0,0,0,0,0,0,0,0,0,0,0,0,0,0,0,0,0,0,0,0,0,0,0,0,0,0,0,0,0,0,0,0,0,0,0,0,0,0,0,0,0,0,0,0,0,0,0,0,0,0,0,0,0,0,0,0,0,0,0,0,0,0,0,0,0,0,0,0,0,0,0,0,0,0,0,0,0,0,0,0,0,0,0,0,0,0,0,0,0,0,0,0,0,0,0,0,0,0,0,0,0,0,0,0,0,0,0,0,0,0,0,0,0,0,0,0,0,0,0,0,0,0,0,0,0,0,0,0,0,0,0,0,0,0,0,0,0,0,0,0,0,0,0,0,0,0,0,0,0,0,0,0,0,0,0,0,0,0,0,0,0,0,0,0,0,0,0,0,0,0,0,0,0,0,0,0,0,0,0,0,0,0,0,0,0,0,0,0,0,0,0,0,0,0,0,0,0,0,0,0,0,0,0,0],"sum_hessian":[3.530046E4,2.6571316E4,8.7291455E3,2.4104375E4,2.466941E3,7.097367E3,1.6317786E3,2.1827373E4,2.2770027E3,1.1150151E3,1.3519259E3,6.5925713E3,5.0479596E2,9.531034E2,6.786752E2,1.9310805E4,2.5165679E3,1.4113942E2,2.1358633E3,5.937822E2,5.212329E2,1.090638E3,2.612879E2,6.583022E3,9.549367E0,1.292306E2,3.7556534E2,8.8437726E2,6.872615E1,7.7973816E1,6.0070135E2,1.890127E4,4.0953546E2,5.0903146E2,2.0075365E3,3.2146545E1,1.08992874E2,1.9736831E3,1.6218005E2,2.3274678E2,3.6103546E2,4.7795703E2,4.3275867E1,1.0794551E3,1.1182821E1,8.1165375E1,1.8012251E2,6.2626973E3,3.2032446E2,6.6245747E0,2.9247918E0,1.0749645E2,2.1734154E1,6.8474963E2,1.9962761E2,9.337969E0,5.9388184E1,4.9439205E1,2.8534616E1,1.0871602E2,4.9198535E2,8.61091E3,1.0290359E4,3.0669416E1,3.7886606E2,2.0130608E0,5.070184E2,7.059775E0,2.0004767E3,2.784513E1,4.301416E0,1.04276924E2,4.715947E0,1.9177805E3,5.5902603E1,1.1639084E2,4.578922E1,1.584786E2,7.426818E1,3.3763345E2,2.3401985E1,2.5436119E2,2.2359584E2,4.1531376E1,1.7444912E0,2.4855257E1,1.0545999E3,9.947227E0,1.2355945E0,7.068043E1,1.048495E1,1.426764E2,3.744611E1,9.888584E2,5.273839E3,4.2299286E1,2.7802518E2,8.700334E1,2.0493109E1,5.736836E2,1.1106601E2,1.7853938E2,2.1088232E1,3.68434E0,5.653629E0,3.7214577E1,2.2173607E1,2.6877434E1,2.256177E1,4.823792E1,6.0478104E1,7.7769263E3,8.339842E2,4.8636407E2,9.803995E3,9.687677E0,2.0981739E1,1.4665817E2,2.3220787E2,4.6135547E2,4.566293E1,5.8762403E0,1.1835349E0,1.9096235E3,9.085315E1,2.5387981E1,2.4571486E0,3.0784647E0,1.222951E0,8.963302E1,1.4643904E1,3.2271125E0,1.4888346E0,9.509853E2,9.667952E2,4.106017E1,1.4842434E1,1.4228699E0,1.1496797E2,3.2291225E1,1.3497995E1,2.6288826E1,1.3218977E2,3.2928883E1,4.1339302E1,8.936335E1,2.4827011E2,2.6938734E0,2.0708113E1,2.308763E2,2.3484894E1,2.1037004E2,1.3225798E1,2.6860988E0,3.8845276E1,1.2524035E1,1.2331221E1,1.045966E3,8.633881E0,6.8476875E1,2.2035546E0,3.7461586E0,6.7387915E0,6.8300674E1,7.437573E1,3.1010366E1,6.435743E0,9.58808E2,3.0050423E1,7.961097E0,3.4338192E1,3.2471092E1,2.4555408E2,3.2720108E1,5.4283234E1,7.59416E0,1.2898948E1,1.3964943E2,4.3403418E2,2.3500809E1,8.75652E1,1.663768E2,1.216257E1,1.8610155E1,2.4780772E0,3.4245267E0,2.2291021E0,6.445389E0,1.5728218E1,2.2531094E1,4.346341E0,1.5685649E1,6.8761206E0,2.3675358E1,2.4562561E1,2.3361238E3,5.4408022E3,5.6438293E2,2.6960123E2,2.4389449E2,2.4246959E2,9.154903E3,6.4909204E2,5.8658624E0,1.5115876E1,5.720696E1,8.945122E1,1.9505008E2,3.71578E1,7.4044633E0,4.5395102E2,1.3949196E0,4.4813204E0,1.8590624E3,5.056123E1,2.0075935E1,5.312046E0,1.2367601E0,1.2203884E0,8.713774E0,5.9301305E0,8.8624164E2,6.474364E1,8.551067E2,1.1168854E2,1.431807E1,2.67421E1,2.7344202E1,4.947023E0,2.3859428E1,2.429397E0,1.219793E1,1.19991844E2,1.724034E1,1.5688542E1,3.9591896E1,1.7474025E0,5.728958E1,3.2073765E1,4.948007E0,1.5760105E1,4.2107227E1,1.8876907E2,7.246822E0,1.6238071E1,7.038954E1,1.399805E2,6.737528E0,6.48827E0,1.4644928E0,1.221606E0,5.485583E0,6.8456383E0,9.716306E2,7.433539E1,5.660716E0,2.973164E0,6.2340454E1,6.1364202E0,3.7451804E0,2.9936109E0,5.0145176E1,1.8155497E1,6.996851E1,4.407214E0,2.483661E0,3.9520822E0,3.263007E2,6.3250726E2,7.506297E0,2.2544125E1,6.734979E0,1.2261171E0,1.1810022E1,2.2528168E1,3.4691937E0,2.90019E1,3.20033E0,2.951978E1,4.9876137E1,4.4070973E0,1.0949783E1,1.9491642E0,1.3427151E2,5.3779044E0,4.3209564E2,1.9385457E0,2.0434238E1,3.0665708E0,2.9829535E1,5.773567E1,6.460797E1,1.0176884E2,1.6910807E1,1.6993495E0,1.9623256E0,1.462201E0,3.9786427E0,2.4667459E0,1.0942922E1,1.1588172E1,1.1970282E0,3.149313E0,1.0144566E1,5.541083E0,4.687827E0,2.1882937E0,2.2210318E1,1.4650396E0,2.135301E1,3.2095523E0],"tree_param":{"num_deleted":"0","num_feature":"16","num_nodes":"311","size_leaf_vector":"1"}},{"base_weights":[-4.3779314E-3,4.9020532E-1,-1.4388208E0,6.0901904E-1,-1.4060152E0,-1.0012106E0,-1.576477E0,6.777166E-1,-5.125523E-1,-1.6069016E0,-3.189198E-1,-1.1340607E0,9.291666E-1,-1.590803E0,-1.2176098E0,7.2829497E-1,2.0769192E-1,-3.935886E-1,-1.5455947E0,-1.616672E0,-9.597263E-1,5.238085E-1,-1.276294E0,7.7050805E-1,-1.2174289E0,-1.4812692E-1,1.0580665E0,-1.553093E0,-1.608403E-1,-2.1449816E-1,-1.5071499E0,4.441618E-1,7.89619E-1,2.3617269E-1,-1.558567E-1,-1.0487158E0,-2.746339E-1,-1.5741712E-1,-9.3779844E-1,-1.6179848E-1,-2.944449E-2,9.2787035E-2,-1.5305035E-1,6.874158E-1,-1.3349293E0,-7.466115E-1,-1.5963782E-1,-3.0541727E-1,1.1905918E0,-9.6781915E-1,-1.5740833E0,1.1578076E0,-8.689955E-1,-1.4997566E0,-1.592684E-1,-2.3425547E-2,-1.372561E-1,-1.1143864E0,-1.595992E-1,-1.1004585E0,4.864684E-1,7.9550886E-1,-9.8392904E-1,1.7347142E-1,9.623274E-1,-1.1658558E0,9.008668E-1,-1.8764108E-1,-1.2535851E0,3.7259825E-2,-1.1935716E-1,8.9914227E-1,1.0649249E-1,-5.3626444E-2,-1.4557879E-1,-1.5789597E-1,-2.974025E-1,9.3614393E-1,-9.905081E-1,1.3180858E-1,7.382003E-1,-4.8077294E-1,-1.1704013E0,-1.5917273E-1,-1.3577852E0,1.3548219E-1,7.207003E-1,-1.2715471E-1,-2.7478874E-1,-2.514408E-2,-1.5024897E0,4.119379E-1,-3.5870427E-1,-7.4294055E-1,-1.5505724E-1,-6.8298674E-1,-1.8077467E-1,3.8224524E-1,7.288269E-1,1.1608926E0,7.7032447E-1,-1.1004792E0,-3.7779915E-1,2.1797135E-1,-1.2368208E0,1.0339507E0,-5.558566E-1,-5.3900176E-1,-1.5451478E0,2.5815016E-1,1.2263012E-1,-2.1989916E-1,1.6619228E-1,-1.5782778E0,-5.062912E-1,9.5834285E-1,4.0110907E-1,2.5949308E-1,-1.2550664E-1,1.0780161E-1,-8.0682623E-1,1.2701358E-1,9.162317E-2,-1.9015213E-2,-1.12121955E-1,4.769253E-1,1.1218639E-1,6.9172966E-1,-9.2575806E-1,-6.7213565E-1,-1.2894106E0,-4.4767973E-1,-1.4297972E0,1.06053E0,-2.266674E-1,4.7009442E-2,-7.41424E-2,-1.3944575E0,-1.5254155E0,2.4933487E-1,1.1461309E-1,3.6112657E-1,-7.283867E-1,1.8654238E-1,-9.334394E-1,-1.7686114E-1,-4.9286954E-2,4.2752568E-2,-1.8881261E-1,7.427249E-2,-1.904249E-2,1.1825134E-1,6.573307E-2,6.952777E-2,8.320518E-2,-9.050682E-2,-1.620698E-1,2.9728724E-2,-5.905754E-2,1.0457794E-2,3.8383126E-2,-1.0328394E-1,-1.532329E-1,1.1745965E-1,6.692792E-2,-1.06929235E-1,1.10948384E-1,-9.150346E-2,-8.495548E-3,-1.6322301E-1,-1.1110207E-1,7.729541E-2,-2.9673005E-2,-5.0064083E-2,-1.1209406E-2,-1.6146015E-1,-8.430193E-2,-3.5904452E-2,-1.0753148E-1,6.6371195E-2,1.0578536E-1,6.0321387E-2,-1.0014894E-2,2.5139356E-3,5.2936103E-2,7.222235E-2,-2.9894495E-2,-1.3179521E-1,5.1686103E-3,-2.1022234E-2,4.1340914E-2,6.468181E-2,-4.8902158E-2,1.0791957E-1,2.5609106E-2,-7.809469E-2,-1.4517806E-1,-8.9985594E-2,-8.599112E-3,-1.1935388E-1,-1.7264047E-1,9.144293E-3,-7.564064E-2,-7.134549E-2,-1.5241268E-1,2.597317E-2,1.2685855E-1,-6.2405486E-2,1.14966094E-1,-1.5084943E-1,-7.611864E-2,-1.4134297E-1,-1.566308E-1,-1.4945266E-2,7.26847E-2,-8.329923E-2,9.143071E-2,-1.06817104E-1,-1.7444741E-2,4.8937295E-2,-4.176506E-2,-1.1548523E-1,-1.7072574E-3],"categories":[],"categories_nodes":[],"categories_segments":[],"categories_sizes":[],"default_left":[0,0,0,0,0,0,0,0,0,0,0,0,0,0,0,0,0,0,0,0,0,0,0,0,0,0,0,0,0,0,0,0,0,0,0,0,0,0,0,0,0,0,0,0,0,0,0,0,0,0,0,0,0,0,0,0,0,0,0,0,0,0,0,0,0,0,0,0,0,0,0,0,0,0,0,0,0,0,0,0,0,0,0,0,0,0,0,0,0,0,0,0,0,0,0,0,0,0,0,0,0,0,0,0,0,0,0,0,0,0,0,0,0,0,0,0,0,0,0,0,0,0,0,0,0,0,0,0,0,0,0,0,0,0,0,0,0,0,0,0,0,0,0,0,0,0,0,0,0,0,0,0,0,0,0,0,0,0,0,0,0,0,0,0,0,0,0,0,0,0,0,0,0,0,0,0,0,0,0,0,0,0,0,0,0,0,0,0,0,0,0,0,0,0,0,0,0,0,0,0,0,0,0,0,0,0,0,0,0,0,0,0,0,0,0,0,0,0,0,0,0,0,0],"id":4,"left_children":[1,3,5,7,9,11,13,15,17,19,21,23,25,27,29,31,33,35,37,39,41,43,45,47,49,-1,51,53,-1,55,57,59,61,63,-1,65,67,-1,69,-1,-1,-1,-1,71,73,75,-1,77,79,81,83,85,87,89,-1,91,-1,93,-1,95,97,99,101,103,105,107,109,111,113,-1,-1,115,117,-1,-1,-1,119,121,123,-1,125,127,129,-1,131,-1,133,-1,135,-1,137,139,141,143,-1,145,-1,147,149,151,153,155,157,159,161,163,165,167,169,171,-1,173,-1,175,177,179,181,183,-1,185,187,-1,189,-1,-1,191,-1,193,195,197,199,201,203,205,207,-1,-1,209,211,213,-1,215,217,219,221,-1,-1,-1,-1,-1,-1,-1,-1,-1,-1,-1,-1,-1,-1,-1,-1,-1,-1,-1,-1,-1,-1,-1,-1,-1,-1,-1,-1,-1,-1,-1,-1,-1,-1,-1,-1,-1,-1,-1,-1,-1,-1,-1,-1,-1,-1,-1,-1,-1,-1,-1,-1,-1,-1,-1,-1,-1,-1,-1,-1,-1,-1,-1,-1,-1,-1,-1,-1,-1,-1,-1,-1,-1,-1,-1,-1,-1,-1],"loss_changes":[2.4485088E4,5.782877E3,5.314668E2,1.8611992E3,3.3001978E2,5.4477075E2,3.2660156E1,5.40875E2,1.7076755E2,6.52417E0,1.9213591E2,3.1597388E2,4.415425E1,1.7958984E0,7.594507E1,3.5765723E2,1.116621E2,9.726785E1,1.019043E0,1.7053223E0,2.453717E1,3.951555E1,1.7693771E1,3.824824E1,1.6773633E2,0E0,2.6125961E1,2.019043E0,0E0,1.3240844E1,5.3262634E0,2.3902924E2,1.7729883E2,9.900698E1,0E0,4.4901917E1,9.010566E1,0E0,3.4360309E0,0E0,0E0,0E0,0E0,1.4333706E1,2.4325752E-1,1.5920895E1,0E0,2.1624132E1,2.5157013E0,1.10051025E2,8.199463E-1,9.761322E0,1.3256321E0,2.7147217E0,0E0,7.812028E0,0E0,5.470413E0,0E0,2.7584953E1,8.946826E1,1.5408984E2,3.5670776E0,1.2617834E2,1.9376434E1,4.233722E1,2.0778017E0,5.856215E1,2.0164673E1,0E0,0E0,2.1466446E0,7.0899787E0,0E0,0E0,0E0,6.218337E0,2.46914E0,1.4780283E0,0E0,1.0258875E0,1.7334952E2,4.604187E1,0E0,3.6672058E0,0E0,1.3400124E1,0E0,1.7749741E0,0E0,1.1218262E-1,2.4969194E0,8.298808E0,4.422845E0,0E0,1.2127871E1,0E0,2.564448E2,1.3777649E1,1.10251465E1,7.242578E1,3.2869415E0,1.7003655E0,3.6554253E1,2.1255646E0,7.700699E0,8.403115E0,1.1870871E1,2.4428406E0,1.6903638E0,0E0,2.8985928E1,0E0,2.3480225E-1,1.9298954E0,1.5262756E0,1.1585747E0,1.8852482E0,0E0,4.5709224E0,5.89425E0,0E0,4.439103E-1,0E0,0E0,2.121955E0,0E0,1.5191887E1,1.7177109E1,2.055867E1,2.4645996E1,1.1135466E0,2.997139E0,4.7122116E0,7.0703526E0,0E0,0E0,1.1124115E1,1.1533203E0,3.9858608E0,0E0,7.9715137E0,3.631236E0,1.1036397E0,4.0544987E0,0E0,0E0,0E0,0E0,0E0,0E0,0E0,0E0,0E0,0E0,0E0,0E0,0E0,0E0,0E0,0E0,0E0,0E0,0E0,0E0,0E0,0E0,0E0,0E0,0E0,0E0,0E0,0E0,0E0,0E0,0E0,0E0,0E0,0E0,0E0,0E0,0E0,0E0,0E0,0E0,0E0,0E0,0E0,0E0,0E0,0E0,0E0,0E0,0E0,0E0,0E0,0E0,0E0,0E0,0E0,0E0,0E0,0E0,0E0,0E0,0E0,0E0,0E0,0E0,0E0,0E0,0E0,0E0,0E0,0E0,0E0,0E0,0E0,0E0,0E0,0E0,0E0,0E0],"parents":[2147483647,0,0,1,1,2,2,3,3,4,4,5,5,6,6,7,7,8,8,9,9,10,10,11,11,12,12,13,13,14,14,15,15,16,16,17,17,18,18,19,19,20,20,21,21,22,22,23,23,24,24,26,26,27,27,29,29,30,30,31,31,32,32,33,33,35,35,36,36,38,38,43,43,44,44,45,45,47,47,48,48,49,49,50,50,51,51,52,52,53,53,55,55,57,57,59,59,60,60,61,61,62,62,63,63,64,64,65,65,66,66,67,67,68,68,71,71,72,72,76,76,77,77,78,78,80,80,81,81,82,82,84,84,86,86,88,88,90,90,91,91,92,92,93,93,95,95,97,97,98,98,99,99,100,100,101,101,102,102,103,103,104,104,105,105,106,106,107,107,108,108,109,109,111,111,113,113,114,114,115,115,116,116,117,117,119,119,120,120,122,122,125,125,127,127,128,128,129,129,130,130,131,131,132,132,133,133,134,134,137,137,138,138,139,139,141,141,142,142,143,143,144,144],"right_children":[2,4,6,8,10,12,14,16,18,20,22,24,26,28,30,32,34,36,38,40,42,44,46,48,50,-1,52,54,-1,56,58,60,62,64,-1,66,68,-1,70,-1,-1,-1,-1,72,74,76,-1,78,80,82,84,86,88,90,-1,92,-1,94,-1,96,98,100,102,104,106,108,110,112,114,-1,-1,116,118,-1,-1,-1,120,122,124,-1,126,128,130,-1,132,-1,134,-1,136,-1,138,140,142,144,-1,146,-1,148,150,152,154,156,158,160,162,164,166,168,170,172,-1,174,-1,176,178,180,182,184,-1,186,188,-1,190,-1,-1,192,-1,194,196,198,200,202,204,206,208,-1,-1,210,212,214,-1,216,218,220,222,-1,-1,-1,-1,-1,-1,-1,-1,-1,-1,-1,-1,-1,-1,-1,-1,-1,-1,-1,-1,-1,-1,-1,-1,-1,-1,-1,-1,-1,-1,-1,-1,-1,-1,-1,-1,-1,-1,-1,-1,-1,-1,-1,-1,-1,-1,-1,-1,-1,-1,-1,-1,-1,-1,-1,-1,-1,-1,-1,-1,-1,-1,-1,-1,-1,-1,-1,-1,-1,-1,-1,-1,-1,-1,-1,-1,-1,-1],"split_conditions":[1E0,3E1,2.2E1,1E0,2.4E1,5E0,5E0,1E0,5E0,2.3E1,3.5E1,3E0,1E0,1E0,2.9E1,3E0,1E0,1.921928E0,1E0,9E0,3.1E1,2E0,1E0,3E0,1E0,-1.4812692E-1,1E0,3E1,-1.608403E-1,1E0,4.1E1,3E0,1E0,5E0,-1.558567E-1,5E0,2.3E1,-1.5741712E-1,2.521928E0,-1.6179848E-1,-2.944449E-2,9.2787035E-2,-1.5305035E-1,1E0,5E0,2.9E1,-1.5963782E-1,1.2E1,1.7E1,5E0,2.7254806E0,6E0,1.8E1,1E0,-1.592684E-1,6E0,-1.372561E-1,1E0,-1.595992E-1,6E0,1.1E1,5E0,1.7E1,4E0,7E0,9E0,1.5E0,9E0,1.9E1,3.7259825E-2,-1.1935716E-1,3.7950885E0,1E0,-5.3626444E-2,-1.4557879E-1,-1.5789597E-1,1E0,1E1,1.3E1,1.3180858E-1,2E0,1.4E1,3E0,-1.5917273E-1,3E0,1.3548219E-1,2.1556392E0,-1.2715471E-1,5E0,-2.514408E-2,3E0,2E0,5E0,5E0,-1.5505724E-1,2E0,-1.8077467E-1,1.4E1,3.6644979E0,1.2E1,1.1E1,2.1E1,3.300559E0,1.4E1,2.2E1,6E0,8E0,7E0,1.7527152E0,2E0,1.2263012E-1,2.502736E0,1.6619228E-1,6E0,2E0,3.4528196E0,3.3E1,2.8E1,-1.2550664E-1,3.2E1,3E0,1.2701358E-1,1.1E1,-1.9015213E-2,-1.12121955E-1,1E0,1.1218639E-1,4E0,1E0,8E0,1E1,1.8E1,8E0,1.5219281E0,2.9182959E0,4.7009442E-2,-7.41424E-2,2.8464394E0,2.502736E0,1E1,1.1461309E-1,1.5219281E0,2.751629E0,3.4E1,1.5E1,-1.7686114E-1,-4.9286954E-2,4.2752568E-2,-1.8881261E-1,7.427249E-2,-1.904249E-2,1.1825134E-1,6.573307E-2,6.952777E-2,8.320518E-2,-9.050682E-2,-1.620698E-1,2.9728724E-2,-5.905754E-2,1.0457794E-2,3.8383126E-2,-1.0328394E-1,-1.532329E-1,1.1745965E-1,6.692792E-2,-1.06929235E-1,1.10948384E-1,-9.150346E-2,-8.495548E-3,-1.6322301E-1,-1.1110207E-1,7.729541E-2,-2.9673005E-2,-5.0064083E-2,-1.1209406E-2,-1.6146015E-1,-8.430193E-2,-3.5904452E-2,-1.0753148E-1,6.6371195E-2,1.0578536E-1,6.0321387E-2,-1.0014894E-2,2.5139356E-3,5.2936103E-2,7.222235E-2,-2.9894495E-2,-1.3179521E-1,5.1686103E-3,-2.1022234E-2,4.1340914E-2,6.468181E-2,-4.8902158E-2,1.0791957E-1,2.5609106E-2,-7.809469E-2,-1.4517806E-1,-8.9985594E-2,-8.599112E-3,-1.1935388E-1,-1.7264047E-1,9.144293E-3,-7.564064E-2,-7.134549E-2,-1.5241268E-1,2.597317E-2,1.2685855E-1,-6.2405486E-2,1.14966094E-1,-1.5084943E-1,-7.611864E-2,-1.4134297E-1,-1.566308E-1,-1.4945266E-2,7.26847E-2,-8.329923E-2,9.143071E-2,-1.06817104E-1,-1.7444741E-2,4.8937295E-2,-4.176506E-2,-1.1548523E-1,-1.7072574E-3],"split_indices":[3,0,0,5,1,2,2,13,5,1,0,1,15,5,0,2,14,15,13,2,0,5,5,2,5,0,5,0,0,5,0,1,14,2,0,2,0,0,15,0,0,0,0,13,5,1,0,0,0,1,15,2,0,15,0,2,0,5,0,0,1,1,1,2,2,0,15,2,1,0,0,15,14,0,0,0,13,0,0,0,3,0,2,0,2,0,15,0,1,0,2,3,1,1,0,1,0,0,15,0,1,0,15,1,0,2,2,0,15,5,0,15,0,2,13,15,0,1,0,1,13,0,0,0,0,5,0,1,13,1,1,0,1,15,15,0,0,15,15,1,0,15,15,0,1,0,0,0,0,0,0,0,0,0,0,0,0,0,0,0,0,0,0,0,0,0,0,0,0,0,0,0,0,0,0,0,0,0,0,0,0,0,0,0,0,0,0,0,0,0,0,0,0,0,0,0,0,0,0,0,0,0,0,0,0,0,0,0,0,0,0,0,0,0,0,0,0,0,0,0,0,0,0],"split_type":[0,0,0,0,0,0,0,0,0,0,0,0,0,0,0,0,0,0,0,0,0,0,0,0,0,0,0,0,0,0,0,0,0,0,0,0,0,0,0,0,0,0,0,0,0,0,0,0,0,0,0,0,0,0,0,0,0,0,0,0,0,0,0,0,0,0,0,0,0,0,0,0,0,0,0,0,0,0,0,0,0,0,0,0,0,0,0,0,0,0,0,0,0,0,0,0,0,0,0,0,0,0,0,0,0,0,0,0,0,0,0,0,0,0,0,0,0,0,0,0,0,0,0,0,0,0,0,0,0,0,0,0,0,0,0,0,0,0,0,0,0,0,0,0,0,0,0,0,0,0,0,0,0,0,0,0,0,0,0,0,0,0,0,0,0,0,0,0,0,0,0,0,0,0,0,0,0,0,0,0,0,0,0,0,0,0,0,0,0,0,0,0,0,0,0,0,0,0,0,0,0,0,0,0,0,0,0,0,0,0,0,0,0,0,0,0,0,0,0,0,0,0,0],"sum_hessian":[3.4510715E4,2.5662996E4,8.847717E3,2.4150453E4,1.5125444E3,2.1191604E3,6.728556E3,2.2756957E4,1.3934954E3,1.2762292E3,2.3631514E2,1.9830947E3,1.3606572E2,6.466961E3,2.6159503E2,2.0545547E4,2.211411E3,1.2508323E3,1.4266309E2,1.255773E3,2.0456402E1,1.2592371E2,1.10391426E2,8.2819466E1,1.9002751E3,6.374299E0,1.2969142E2,2.0862095E3,4.3807515E3,5.8984417E1,2.0261063E2,3.6486187E3,1.6896928E4,2.1771707E3,3.42404E1,1.9101674E2,1.0598156E3,1.3473817E2,7.924904E0,1.254304E3,1.468991E0,4.604245E0,1.5852157E1,1.16315704E2,9.608014E0,4.2836746E1,6.755468E1,2.3332596E1,5.9486866E1,1.1200826E3,7.8019257E2,1.2368872E2,6.0027065E0,9.053788E2,1.1808306E3,5.1506428E1,7.4779873E0,3.9874092E1,1.6273653E2,9.6603355E1,3.5520151E3,1.6841549E4,5.5378536E1,2.0052612E3,1.7190938E2,1.805693E2,1.0447444E1,9.744173E2,8.539825E1,1.2196331E0,6.705271E0,8.4844894E1,3.147081E1,1.977474E0,7.63054E0,1.4133509E1,2.8703238E1,8.166443E0,1.5166154E1,4.4915176E1,1.4571692E1,3.300214E2,7.900612E2,7.15471E2,6.47216E1,8.381282E1,3.98759E1,2.8989058E0,3.1038008E0,2.1810784E0,9.031977E2,2.2309122E1,2.9197306E1,2.2995182E1,1.6878912E1,6.198362E1,3.461974E1,2.4856643E3,1.066351E3,1.0830594E3,1.5758489E4,4.5763317E1,9.615218E0,1.9447428E3,6.0518368E1,1.6446918E2,7.440199E0,6.89828E1,1.11586494E2,4.114588E0,6.332856E0,9.585799E2,1.5837397E1,5.8756897E1,2.664135E1,7.50049E1,9.839995E0,2.9019281E1,2.4515293E0,1.6426062E1,1.2277177E1,5.4909177E0,2.6755254E0,2.4737763E0,1.2692377E1,1.0002839E1,4.5688534E0,9.0639244E1,2.3938214E2,1.5360384E2,6.364574E2,5.2747483E0,5.9446854E1,2.9260452E1,1.0615446E1,1.1926222E0,1.9111786E0,1.6893898E2,7.342587E2,1.9360846E1,2.9482765E0,9.914782E0,1.9282524E1,3.9148068E0,1.9080374E1,7.999785E0,5.3983833E1,2.4378552E3,4.780905E1,1.0506582E3,1.56926365E1,1.0371793E3,4.58801E1,7.1174688E3,8.6410205E3,3.525877E1,1.0504549E1,2.209102E0,7.406116E0,1.1560303E3,7.887125E2,3.84633E1,2.2055067E1,1.1708941E2,4.737977E1,5.9604616E0,1.4797373E0,3.7177654E1,3.1805147E1,9.06442E1,2.0942297E1,1.9305041E0,2.1840837E0,2.6495392E2,6.93626E2,5.485115E1,3.9057455E0,2.2460272E1,4.1810794E0,2.0873245E1,5.413165E1,6.867609E0,2.9723861E0,1.6116682E1,1.2902598E1,6.2338066E0,1.0192254E1,7.360095E0,4.917082E0,1.5594308E0,1.1160946E0,8.787631E0,1.2152078E0,4.7190117E1,4.3449127E1,1.896556E2,4.9726536E1,1.1023986E2,4.336397E1,5.250076E2,1.1144978E2,2.176966E0,3.0977824E0,7.9136553E0,5.15332E1,6.498051E0,2.2762402E1,8.66126E0,1.9541864E0,1.4198825E2,2.6950726E1,2.0591525E2,5.2834344E2,1.0924457E1,8.43639E0,2.978798E0,6.9359837E0,1.1376129E1,7.906395E0,2.7343488E0,1.1804578E0,1.5157712E1,3.922663E0],"tree_param":{"num_deleted":"0","num_feature":"16","num_nodes":"223","size_leaf_vector":"1"}},{"base_weights":[2.2585369E-3,4.5997694E-1,-1.3423378E0,5.9401536E-1,-8.628646E-1,-1.0979588E0,-1.5063896E0,6.264092E-1,-9.8010033E-1,-4.623746E-1,-1.496219E0,-5.07216E-1,-1.3815559E0,-1.1462886E0,-1.5102753E-1,6.7705965E-1,1.754209E-1,-1.5023906E0,3.5513288E-1,-2.9848567E-1,-1.456551E0,-1.3363729E0,-1.5169816E-1,-6.889908E-1,9.93973E-1,-1.4227769E0,-6.027535E-1,-1.1336824E-1,-1.4753287E-1,4.0901017E-1,7.356436E-1,2.0547023E-1,-1.4973189E-1,-1.5171142E-1,-5.388707E-1,6.3134205E-1,-6.244933E-1,-9.261477E-1,-1.5849012E-1,-1.479045E-1,-9.792967E-1,-1.5094762E-1,-7.6048815E-1,-7.539768E-2,-1.0173256E0,-1.3923195E-1,1.075216E0,-1.3111687E0,-1.4844951E-1,1.1078403E-1,-1.1282918E0,-1.1623102E0,1.1615779E-1,-9.695214E-1,4.474679E-1,7.4189764E-1,-9.6013534E-1,1.545498E-1,8.38783E-1,6.9833614E-2,-1.254321E-1,6.596496E-1,-9.42061E-2,-2.170565E-1,-1.2592093E0,-1.0579532E0,9.164462E-1,-8.285346E-2,-8.240927E-1,7.993726E-2,-1.2559162E-1,-2.7064526E-1,-1.2281715E-1,7.204752E-1,-5.682472E-1,-5.830918E-1,-1.1384304E0,1.3037764E-1,6.204604E-1,-9.3556166E-2,-1.3262671E0,6.200956E-1,-2.321495E-1,-6.41261E-1,-1.4223224E0,-3.1558763E-2,-1.2896465E-1,-5.2644473E-1,-1.6631226E-1,7.4769515E-1,3.7111685E-1,1.0907786E0,7.18195E-1,-5.3823155E-1,-1.0971688E0,1.9828025E-1,-1.1211202E0,1.0548471E0,4.1097513E-1,7.444436E-1,1.8810326E-1,-6.860021E-1,3.8168702E-1,-1.4771937E-1,2.7279172E-2,-7.4105644E-1,-1.3247062E0,1.0932797E-1,3.069746E-1,-1.10244416E-1,1.5566304E-1,-1.4438944E-1,-4.8632106E-1,4.525092E-2,-7.212078E-1,1.0018328E0,1.3631476E-1,-3.6339426E-1,-1.4087144E0,-7.475777E-1,6.110969E-1,-1.0461152E0,-1.6272652E-1,9.1262877E-1,-2.0490631E-1,-9.055919E-2,6.019843E-1,-1.1263077E0,-1.3695412E0,7.1140224E-1,-3.4805413E-2,-5.9503365E-1,3.3554414E-1,6.415245E-1,-9.150282E-1,-1.4417677E-1,-4.963818E-2,-1.6244228E-1,-3.3293556E-2,8.461323E-2,7.09468E-2,-2.0490825E-1,3.9891638E-2,1.1246494E-1,4.3283723E-2,6.9091044E-2,9.09515E-2,-8.7268315E-2,-1.8382823E-2,-1.3320652E-1,-6.028951E-2,2.1675511E-4,3.0413523E-2,-9.409169E-2,-1.4044134E-1,2.3920858E-2,1.07659936E-1,-4.026429E-2,5.647139E-2,-1.1954265E-2,8.076607E-2,3.8738497E-2,-1.366542E-2,1.6439816E-2,-1.2953298E-1,-8.370885E-2,7.916022E-2,-5.1061034E-2,-1.19547606E-1,-1.4947677E-1,-4.825325E-2,-8.373844E-2,9.2501186E-2,-2.7953083E-2,1.0366554E-2,-1.8611303E-2,-6.8866774E-2,-3.918478E-2,2.9774895E-2,-1.3594784E-1,4.16374E-2,1.1001445E-1,-1.23624794E-1,-1.7453763E-1,2.4682304E-2,6.1743136E-2,-5.2004237E-2,-1.5037698E-1,-6.317986E-2,8.463276E-3,-8.50539E-2,-1.2576318E-1,8.241902E-2,-1.8531005E-1,-9.628733E-2,-9.80624E-4,1.256108E-1,-7.183006E-2,9.959941E-2,7.730572E-2,1.4283376E-2,-1.3190648E-1,-5.928406E-2,-1.22567944E-1,-1.4345051E-1,8.6764105E-2,-2.5306666E-2,-1.3132292E-2,-1.1650236E-1,7.4590564E-2,-3.687805E-3,7.592143E-2,1.8826595E-2,-1.0939165E-1,2.0377878E-3],"categories":[],"categories_nodes":[],"categories_segments":[],"categories_sizes":[],"default_left":[0,0,0,0,0,0,0,0,0,0,0,0,0,0,0,0,0,0,0,0,0,0,0,0,0,0,0,0,0,0,0,0,0,0,0,0,0,0,0,0,0,0,0,0,0,0,0,0,0,0,0,0,0,0,0,0,0,0,0,0,0,0,0,0,0,0,0,0,0,0,0,0,0,0,0,0,0,0,0,0,0,0,0,0,0,0,0,0,0,0,0,0,0,0,0,0,0,0,0,0,0,0,0,0,0,0,0,0,0,0,0,0,0,0,0,0,0,0,0,0,0,0,0,0,0,0,0,0,0,0,0,0,0,0,0,0,0,0,0,0,0,0,0,0,0,0,0,0,0,0,0,0,0,0,0,0,0,0,0,0,0,0,0,0,0,0,0,0,0,0,0,0,0,0,0,0,0,0,0,0,0,0,0,0,0,0,0,0,0,0,0,0,0,0,0,0,0,0,0,0,0,0,0,0,0,0,0,0,0,0,0,0,0,0,0],"id":5,"left_children":[1,3,5,7,9,11,13,15,17,19,21,23,25,27,-1,29,31,33,35,37,39,41,-1,43,45,47,49,51,-1,53,55,57,-1,-1,59,61,63,65,67,-1,69,-1,71,73,75,-1,77,79,-1,81,83,85,-1,87,89,91,93,95,97,-1,-1,99,-1,101,103,105,107,109,111,-1,-1,113,-1,115,117,119,121,-1,123,125,127,129,131,133,135,-1,-1,137,-1,139,141,143,145,147,149,151,153,155,157,159,161,163,165,-1,-1,167,169,-1,171,173,-1,-1,175,177,179,181,183,185,187,189,191,193,-1,195,197,-1,199,201,203,205,-1,207,209,211,213,-1,-1,-1,-1,-1,-1,-1,-1,-1,-1,-1,-1,-1,-1,-1,-1,-1,-1,-1,-1,-1,-1,-1,-1,-1,-1,-1,-1,-1,-1,-1,-1,-1,-1,-1,-1,-1,-1,-1,-1,-1,-1,-1,-1,-1,-1,-1,-1,-1,-1,-1,-1,-1,-1,-1,-1,-1,-1,-1,-1,-1,-1,-1,-1,-1,-1,-1,-1,-1,-1,-1,-1,-1,-1,-1,-1,-1,-1,-1,-1],"loss_changes":[2.0703742E4,4.45048E3,3.4085547E2,1.1626353E3,5.8509595E2,5.748125E2,5.416992E0,5.0995117E2,3.212579E2,2.3031998E2,9.403076E-1,3.051665E2,7.3634766E1,1.97798E1,0E0,3.1493848E2,1.1370327E2,3.874939E0,3.5602715E1,1.0679738E2,7.0043945E-1,9.936462E0,0E0,2.0055887E2,2.4941124E1,1.3228516E1,4.451551E1,2.1761072E1,0E0,1.9143536E2,1.7541309E2,7.136656E1,0E0,0E0,6.6555047E0,5.1644173E0,7.257743E0,5.4824142E1,5.009072E1,0E0,6.892988E0,0E0,6.016533E0,1.3699875E2,3.3447937E1,0E0,1.1404938E1,1.4454956E1,0E0,9.072382E0,8.862679E0,5.4969025E-1,0E0,2.927134E1,8.008191E1,1.3494043E2,2.934101E0,1.1476519E2,1.4796379E1,0E0,0E0,3.889782E0,0E0,5.5810776E0,4.135565E0,1.6551254E1,1.317565E0,4.0398075E1,2.0558311E1,0E0,0E0,2.1418009E0,0E0,2.1823837E1,3.6610275E1,2.8645409E1,2.1138977E1,0E0,1.0125486E1,6.638808E0,5.2348633E0,2.0900126E0,6.6429095E0,1.0250544E1,3.590393E-2,0E0,0E0,1.2488123E1,0E0,2.0705872E0,1.8899277E2,2.2738647E1,7.961328E1,1.8438592E0,4.427891E0,4.1229095E1,2.160408E0,1.6734467E0,7.3482647E0,4.743824E0,1.133677E0,5.903181E0,5.1406517E0,0E0,0E0,9.554073E0,1.5225616E1,0E0,4.1977415E0,3.1967495E1,0E0,0E0,3.9564056E0,1.1819472E0,5.043516E0,2.116742E1,9.703308E0,2.7163536E1,2.1446686E0,1.0918289E1,8.173956E0,2.7003815E1,0E0,9.714512E0,7.861999E0,0E0,3.9323497E-1,1.412587E1,4.2160645E0,3.139041E0,0E0,4.9854226E0,1.9892058E0,1.4659238E-1,3.8859158E0,0E0,0E0,0E0,0E0,0E0,0E0,0E0,0E0,0E0,0E0,0E0,0E0,0E0,0E0,0E0,0E0,0E0,0E0,0E0,0E0,0E0,0E0,0E0,0E0,0E0,0E0,0E0,0E0,0E0,0E0,0E0,0E0,0E0,0E0,0E0,0E0,0E0,0E0,0E0,0E0,0E0,0E0,0E0,0E0,0E0,0E0,0E0,0E0,0E0,0E0,0E0,0E0,0E0,0E0,0E0,0E0,0E0,0E0,0E0,0E0,0E0,0E0,0E0,0E0,0E0,0E0,0E0,0E0,0E0,0E0,0E0,0E0,0E0,0E0,0E0,0E0,0E0,0E0,0E0,0E0],"parents":[2147483647,0,0,1,1,2,2,3,3,4,4,5,5,6,6,7,7,8,8,9,9,10,10,11,11,12,12,13,13,15,15,16,16,17,17,18,18,19,19,20,20,21,21,23,23,24,24,25,25,26,26,27,27,29,29,30,30,31,31,34,34,35,35,36,36,37,37,38,38,40,40,42,42,43,43,44,44,46,46,47,47,49,49,50,50,51,51,53,53,54,54,55,55,56,56,57,57,58,58,61,61,63,63,64,64,65,65,66,66,67,67,68,68,71,71,73,73,74,74,75,75,76,76,78,78,79,79,80,80,81,81,82,82,83,83,84,84,87,87,89,89,90,90,91,91,92,92,93,93,94,94,95,95,96,96,97,97,98,98,99,99,100,100,101,101,102,102,105,105,106,106,108,108,109,109,112,112,113,113,114,114,115,115,116,116,117,117,118,118,119,119,120,120,121,121,123,123,124,124,126,126,127,127,128,128,129,129,131,131,132,132,133,133,134,134],"right_children":[2,4,6,8,10,12,14,16,18,20,22,24,26,28,-1,30,32,34,36,38,40,42,-1,44,46,48,50,52,-1,54,56,58,-1,-1,60,62,64,66,68,-1,70,-1,72,74,76,-1,78,80,-1,82,84,86,-1,88,90,92,94,96,98,-1,-1,100,-1,102,104,106,108,110,112,-1,-1,114,-1,116,118,120,122,-1,124,126,128,130,132,134,136,-1,-1,138,-1,140,142,144,146,148,150,152,154,156,158,160,162,164,166,-1,-1,168,170,-1,172,174,-1,-1,176,178,180,182,184,186,188,190,192,194,-1,196,198,-1,200,202,204,206,-1,208,210,212,214,-1,-1,-1,-1,-1,-1,-1,-1,-1,-1,-1,-1,-1,-1,-1,-1,-1,-1,-1,-1,-1,-1,-1,-1,-1,-1,-1,-1,-1,-1,-1,-1,-1,-1,-1,-1,-1,-1,-1,-1,-1,-1,-1,-1,-1,-1,-1,-1,-1,-1,-1,-1,-1,-1,-1,-1,-1,-1,-1,-1,-1,-1,-1,-1,-1,-1,-1,-1,-1,-1,-1,-1,-1,-1,-1,-1,-1,-1,-1,-1],"split_conditions":[1E0,1E0,1E0,2.9E1,2.1E1,1.8E1,3E0,1E0,2.5E1,5E0,2.6E1,5E0,5E0,1.4E1,-1.5102753E-1,3E0,1E0,2.4E1,3.5E1,1.9312953E0,1E0,1.9E1,-1.5169816E-1,5E0,9.1829586E-1,2.4E1,2.4E1,2E0,-1.4753287E-1,3E0,1E0,5E0,-1.4973189E-1,-1.5171142E-1,3E1,1E0,1E0,5E0,1E0,-1.479045E-1,5E0,-1.5094762E-1,1.1111111E-1,1.2E1,3E0,-1.3923195E-1,6E0,1.0612781E0,-1.4844951E-1,2.1556392E0,3.2E1,7E0,1.1615779E-1,5E0,8E0,5E0,1.6E1,4E0,6E0,6.9833614E-2,-1.254321E-1,3.7950885E0,-9.42061E-2,3.3E1,3E0,6E0,1.6049382E-1,9E0,7.692308E-2,7.993726E-2,-1.2559162E-1,1E0,-1.2281715E-1,4E0,1E0,1E1,4E0,1.3037764E-1,2.1556392E0,3E0,3E0,6E0,2.8464394E0,5E0,1.9E1,-3.1558763E-2,-1.2896465E-1,2E0,-1.6631226E-1,4E0,6E0,1E1,5E0,1.4E1,1.5E1,3E0,2E1,6E0,2.521928E0,2.6E1,3.2E1,3.6E1,3.4528196E0,-1.4771937E-1,2.7279172E-2,5E0,1.9182959E0,1.0932797E-1,3E0,2.8510187E0,1.5566304E-1,-1.4438944E-1,1E1,2E1,7.692308E-2,1E0,8E0,3E0,4E0,2.251629E0,2.7254806E0,1.1E1,-1.6272652E-1,1.5219281E0,2.751629E0,-9.055919E-2,2E1,8E0,2.502736E0,1E0,-3.4805413E-2,2.1E1,2.1E1,4E0,1.5E1,-1.4417677E-1,-4.963818E-2,-1.6244228E-1,-3.3293556E-2,8.461323E-2,7.09468E-2,-2.0490825E-1,3.9891638E-2,1.1246494E-1,4.3283723E-2,6.9091044E-2,9.09515E-2,-8.7268315E-2,-1.8382823E-2,-1.3320652E-1,-6.028951E-2,2.1675511E-4,3.0413523E-2,-9.409169E-2,-1.4044134E-1,2.3920858E-2,1.07659936E-1,-4.026429E-2,5.647139E-2,-1.1954265E-2,8.076607E-2,3.8738497E-2,-1.366542E-2,1.6439816E-2,-1.2953298E-1,-8.370885E-2,7.916022E-2,-5.1061034E-2,-1.19547606E-1,-1.4947677E-1,-4.825325E-2,-8.373844E-2,9.2501186E-2,-2.7953083E-2,1.0366554E-2,-1.8611303E-2,-6.8866774E-2,-3.918478E-2,2.9774895E-2,-1.3594784E-1,4.16374E-2,1.1001445E-1,-1.23624794E-1,-1.7453763E-1,2.4682304E-2,6.1743136E-2,-5.2004237E-2,-1.5037698E-1,-6.317986E-2,8.463276E-3,-8.50539E-2,-1.2576318E-1,8.241902E-2,-1.8531005E-1,-9.628733E-2,-9.80624E-4,1.256108E-1,-7.183006E-2,9.959941E-2,7.730572E-2,1.4283376E-2,-1.3190648E-1,-5.928406E-2,-1.22567944E-1,-1.4345051E-1,8.6764105E-2,-2.5306666E-2,-1.3132292E-2,-1.1650236E-1,7.4590564E-2,-3.687805E-3,7.592143E-2,1.8826595E-2,-1.0939165E-1,2.0377878E-3],"split_indices":[3,5,5,4,4,4,1,13,1,5,4,2,2,4,0,2,14,1,4,15,13,1,0,1,15,4,4,3,0,1,14,2,0,0,4,14,13,2,13,0,4,0,6,4,2,0,2,15,0,15,4,4,0,4,4,1,4,2,2,0,0,15,0,1,13,4,6,2,6,0,0,13,0,1,13,1,2,0,15,2,2,1,15,1,1,0,0,1,0,1,1,4,2,4,1,2,4,1,15,1,4,4,15,0,0,1,15,0,5,15,0,0,4,1,6,13,4,1,1,15,15,4,0,15,15,0,4,1,15,13,0,4,4,1,1,0,0,0,0,0,0,0,0,0,0,0,0,0,0,0,0,0,0,0,0,0,0,0,0,0,0,0,0,0,0,0,0,0,0,0,0,0,0,0,0,0,0,0,0,0,0,0,0,0,0,0,0,0,0,0,0,0,0,0,0,0,0,0,0,0,0,0,0,0,0,0,0,0,0,0,0,0,0,0,0],"split_type":[0,0,0,0,0,0,0,0,0,0,0,0,0,0,0,0,0,0,0,0,0,0,0,0,0,0,0,0,0,0,0,0,0,0,0,0,0,0,0,0,0,0,0,0,0,0,0,0,0,0,0,0,0,0,0,0,0,0,0,0,0,0,0,0,0,0,0,0,0,0,0,0,0,0,0,0,0,0,0,0,0,0,0,0,0,0,0,0,0,0,0,0,0,0,0,0,0,0,0,0,0,0,0,0,0,0,0,0,0,0,0,0,0,0,0,0,0,0,0,0,0,0,0,0,0,0,0,0,0,0,0,0,0,0,0,0,0,0,0,0,0,0,0,0,0,0,0,0,0,0,0,0,0,0,0,0,0,0,0,0,0,0,0,0,0,0,0,0,0,0,0,0,0,0,0,0,0,0,0,0,0,0,0,0,0,0,0,0,0,0,0,0,0,0,0,0,0,0,0,0,0,0,0,0,0,0,0,0,0,0,0,0,0,0,0],"sum_hessian":[3.3638195E4,2.5095883E4,8.5423125E3,2.2787469E4,2.3084146E3,3.4342244E3,5.1080884E3,2.2328568E4,4.5889935E2,1.4152422E3,8.9317236E2,1.1148148E3,2.3194094E3,5.7689896E1,5.0503984E3,2.0073602E4,2.2549673E3,3.2977805E2,1.2912129E2,1.216074E3,1.991683E2,1.10191536E2,7.8298083E2,9.948877E2,1.1992714E2,2.202032E3,1.17377464E2,1.4262305E1,4.3427593E1,3.6017698E3,1.6471832E4,2.2160354E3,3.8932026E1,3.2424866E2,5.5294027E0,1.0099961E2,2.8121681E1,2.2074785E2,9.9532605E2,1.8819905E2,1.0969245E1,8.3478E1,2.6713537E1,3.4722406E2,6.476637E2,3.417241E0,1.16509895E2,7.920209E2,1.4100111E3,5.011889E1,6.7258575E1,7.8731446E0,6.3891606E0,9.709655E1,3.504673E3,1.6411867E4,5.996409E1,2.05227E3,1.6376523E2,2.0347285E0,3.4946744E0,9.9785095E1,1.2145146E0,1.7944637E1,1.0177044E1,2.0640872E2,1.4339122E1,8.947719E2,1.0055416E2,1.2219956E0,9.74725E0,1.3818739E1,1.2894798E1,1.3261319E2,2.1461086E2,1.4250644E2,5.0515723E2,7.629636E1,4.0213535E1,9.78898E0,7.8223193E2,1.9842045E1,3.0276844E1,2.6516954E1,4.074162E1,1.4839554E0,6.3891892E0,6.032169E1,3.6774864E1,7.087878E2,2.7958853E3,1.0412083E3,1.5370659E4,1.590939E1,4.40547E1,1.9850659E3,6.72042E1,1.0783667E2,5.5928555E1,8.4085945E1,1.5699151E1,9.981348E0,7.963289E0,8.940675E0,1.2363696E0,9.6064354E1,1.1034437E2,1.049908E1,3.840042E0,8.8098596E2,1.37859335E1,3.4314053E1,6.624011E1,8.652153E0,5.1665864E0,8.902148E1,4.359171E1,1.7370493E2,4.090594E1,1.25582825E2,1.6923616E1,4.275547E2,7.760255E1,2.9622025E1,1.0591512E1,4.376946E0,5.412033E0,1.4397673E2,6.382552E2,1.8374346E1,1.4676994E0,1.8440834E1,1.183601E1,4.4275503E0,2.2089403E1,3.935799E1,1.3836281E0,7.930304E0,5.2391384E1,1.9234785E2,5.1643994E2,3.0924414E1,2.764961E3,9.8955664E2,5.165162E1,1.3456246E4,1.9144138E3,7.432714E0,8.476676E0,2.8713861E1,1.5340837E1,6.9622406E2,1.2888418E3,4.3717056E1,2.3487146E1,3.112813E0,1.04723854E2,8.631234E0,4.729732E1,5.6722608E0,7.841369E1,9.609566E0,6.089585E0,4.4712725E0,5.5100756E0,1.7419512E0,6.221338E0,6.514935E1,3.0915007E1,9.1161156E1,1.9183216E1,1.2221667E0,2.6178756E0,4.9161755E2,3.8936844E2,2.7443632E1,3.879648E1,2.9659388E0,5.6862135E0,3.184678E0,1.9819081E0,8.576265E1,3.2588325E0,1.597419E0,4.199429E1,2.3516817E1,1.501881E2,3.5613132E1,5.2928114E0,1.3846112E1,1.1173672E2,1.2305428E0,1.5693073E1,3.7990936E1,3.8956375E2,8.300896E0,2.1321129E1,7.701098E0,2.8904135E0,3.44486E0,1.9671732E0,1.04680145E2,3.929658E1,2.047363E2,4.335189E2,1.5899162E1,2.4751835E0,1.0846857E1,7.593978E0,5.1540537E0,6.681956E0,2.979025E0,1.4485253E0,1.8400928E1,3.688474E0],"tree_param":{"num_deleted":"0","num_feature":"16","num_nodes":"215","size_leaf_vector":"1"}},{"base_weights":[6.1203074E-4,4.1949746E-1,-1.2621585E0,5.431786E-1,-8.140326E-1,-1.0127463E0,-1.4343547E0,5.70092E-1,-1.0344813E0,-4.4066507E-1,-1.4232523E0,-4.385211E-1,-1.2932422E0,-1.1088886E0,-1.4382337E-1,3.1259847E-1,6.32343E-1,-1.4319992E0,3.0445346E-1,-2.735782E-1,-1.0946354E0,-1.0579756E0,-1.431688E-1,-6.1437154E-1,9.629673E-1,-1.3377905E0,-4.754503E-1,-1.8929286E-1,-1.3813446E-1,-9.5593154E-1,3.4370095E-1,6.412941E-1,-1.054202E0,-1.445186E-1,-6.298707E-1,6.2852466E-1,-5.2310675E-1,-1.0054797E0,-1.7349939E-1,-4.1064075E-1,-1.1962479E0,-1.3652949E-1,-5.977026E-1,-3.9930947E-2,-9.3022835E-1,-1.329829E-1,1.0480776E0,-1.215334E0,-1.4070433E0,1.1143868E-1,-1.158273E0,-1.106137E0,1.100807E-1,-5.570179E-1,-1.5821813E-1,6.969259E-1,2.6723072E-1,6.0302156E-1,8.769153E-1,-8.429696E-1,-1.2568512E0,2.3144749E-1,-1.2314701E-1,7.771494E-1,2.4858393E-1,-9.662469E-1,-1.2427997E-2,-1.1308547E0,9.60579E-1,-1.9855396E-1,1.3694952E0,-7.6841813E-1,5.4199528E-2,-8.721474E-1,-1.3782199E-1,-1.7675403E-1,-9.584182E-2,7.501561E-1,-5.167492E-1,-1.127238E0,-6.389687E-1,1.2275448E-1,6.7170423E-1,-3.583451E-1,-1.2357314E0,-1.4180546E-1,-1.2836763E0,6.091889E-1,-2.8136116E-1,-7.2436595E-1,-1.3611559E0,-1.24761574E-1,-4.1332185E-2,-1.5252309E-1,-3.8131874E-2,7.073822E-1,2.5441733E-1,-1.8826829E0,2.9181862E-1,6.3906825E-1,-8.24268E-1,1.111171E0,7.984615E-1,-8.912117E-1,4.09771E-2,-1.452005E-1,-1.0591155E0,4.8484128E-2,-1.6464181E-2,6.8853724E-1,1.2595172E-1,3.8239437E-1,-8.014275E-2,-1.833793E-1,-1.2778556E-1,-7.873719E-2,1.8439978E-1,-4.9406782E-1,-1.396396E0,-7.5918646E-3,1.2207671E-1,-8.433294E-2,-5.3456914E-1,1.451325E-1,3.3641595E-2,-1.3980861E-1,-5.378846E-1,3.8388538E-1,-4.2542028E-1,-1.3508326E-1,-7.4782765E-1,-8.991525E-2,1.6879967E-1,9.526138E-1,1.2717625E-1,5.324366E-1,-6.514791E-1,-8.3027536E-1,-1.2788486E0,-4.0609413E-1,-9.871021E-1,8.9205176E-1,2.6557548E-2,-1.0289212E0,3.547242E-2,-1.0508873E0,-1.2740984E0,-9.940947E-1,-1.3667285E-1,9.0148515E-1,2.9303777E-1,6.152932E-1,-7.6201683E-1,1.7569212E-2,-8.2299054E-1,-1.3848208E-1,-3.3158176E-2,8.0964655E-2,6.676375E-2,-9.707437E-5,2.72058E-2,-2.1615973E-1,-1.5009713E-1,1.621206E-2,5.204702E-2,1.0393844E-1,6.2357333E-2,1.1364905E-2,-8.4798105E-2,2.6872372E-2,1.11352704E-1,7.6937065E-2,1.3168798E-1,2.5257295E-2,-9.2803344E-2,-1.1173967E-1,1.1833679E-1,-5.6762096E-2,-1.2314912E-1,7.883193E-2,-1.4420958E-1,-2.6228948E-2,6.094256E-2,7.1147725E-2,-6.651062E-2,3.932865E-2,-3.8301714E-2,9.044257E-3,-6.750395E-2,-1.4139783E-1,-5.8328893E-2,-3.4916114E-2,-8.446731E-4,-1.5328243E-1,-2.140826E-2,-7.052188E-2,2.8100213E-2,-1.6717203E-2,8.321356E-2,3.8029787E-3,-7.372146E-2,-6.2218275E-2,-1.2822892E-1,6.649962E-2,-8.3519615E-2,9.978025E-2,-1.5802716E-1,-1.3096868E-1,3.9279148E-2,-6.579732E-2,9.433185E-2,-8.355506E-2,-3.593099E-2,-5.0327517E-2,-1.511907E-1,-1.3538466E-1,-6.5689966E-2,-1.3531143E-2,-7.7932164E-2,4.4297255E-3,-1.3030411E-1,2.6229724E-2,1.078038E-1,-3.323019E-2,1.08114384E-1,-1.1904701E-1,-3.7858956E-2,4.4445492E-2,-1.1245536E-1,-1.2843521E-1,-4.71633E-2,-1.1432882E-1,-1.3324554E-1,1.6282419E-2,-1.1147151E-1,6.2761836E-2,1.1442559E-1,8.679172E-3,1.1981773E-1,-6.633249E-2,8.0428384E-2,-8.814841E-2,2.130429E-2,-9.055188E-2,-3.8029575E-3],"categories":[],"categories_nodes":[],"categories_segments":[],"categories_sizes":[],"default_left":[0,0,0,0,0,0,0,0,0,0,0,0,0,0,0,0,0,0,0,0,0,0,0,0,0,0,0,0,0,0,0,0,0,0,0,0,0,0,0,0,0,0,0,0,0,0,0,0,0,0,0,0,0,0,0,0,0,0,0,0,0,0,0,0,0,0,0,0,0,0,0,0,0,0,0,0,0,0,0,0,0,0,0,0,0,0,0,0,0,0,0,0,0,0,0,0,0,0,0,0,0,0,0,0,0,0,0,0,0,0,0,0,0,0,0,0,0,0,0,0,0,0,0,0,0,0,0,0,0,0,0,0,0,0,0,0,0,0,0,0,0,0,0,0,0,0,0,0,0,0,0,0,0,0,0,0,0,0,0,0,0,0,0,0,0,0,0,0,0,0,0,0,0,0,0,0,0,0,0,0,0,0,0,0,0,0,0,0,0,0,0,0,0,0,0,0,0,0,0,0,0,0,0,0,0,0,0,0,0,0,0,0,0,0,0,0,0,0,0,0,0,0,0,0,0,0,0,0,0,0,0,0,0,0,0,0,0,0,0,0,0,0,0,0,0],"id":6,"left_children":[1,3,5,7,9,11,13,15,17,19,21,23,25,27,-1,29,31,33,35,37,39,41,-1,43,45,47,49,51,-1,53,55,57,59,-1,61,63,65,67,69,71,73,-1,75,77,79,-1,81,83,85,87,89,91,-1,93,-1,95,97,99,101,103,105,107,-1,109,111,113,115,117,119,121,123,125,127,129,-1,131,-1,133,135,137,139,-1,141,143,145,-1,147,149,151,153,155,-1,-1,-1,-1,157,159,161,163,165,167,169,171,173,175,-1,177,-1,-1,179,-1,181,-1,183,-1,-1,185,187,189,-1,-1,191,193,-1,-1,-1,195,197,199,-1,201,-1,203,205,207,209,211,213,215,217,219,221,223,225,227,229,231,233,-1,235,237,239,241,-1,243,-1,-1,-1,-1,-1,-1,-1,-1,-1,-1,-1,-1,-1,-1,-1,-1,-1,-1,-1,-1,-1,-1,-1,-1,-1,-1,-1,-1,-1,-1,-1,-1,-1,-1,-1,-1,-1,-1,-1,-1,-1,-1,-1,-1,-1,-1,-1,-1,-1,-1,-1,-1,-1,-1,-1,-1,-1,-1,-1,-1,-1,-1,-1,-1,-1,-1,-1,-1,-1,-1,-1,-1,-1,-1,-1,-1,-1,-1,-1,-1,-1,-1,-1,-1,-1,-1,-1,-1,-1,-1],"loss_changes":[1.7227832E4,3.731667E3,3.4697266E2,9.444209E2,5.0641345E2,5.336743E2,4.461914E0,3.5014404E2,1.990687E2,1.5087912E2,1.0939941E0,2.6922952E2,8.052734E1,1.4988327E1,0E0,1.6829398E2,2.663755E2,2.135315E0,2.346224E1,8.0641E1,1.9054169E1,2.4289055E0,0E0,1.7579889E2,2.5183525E1,1.620288E1,4.687225E1,1.9043041E1,0E0,2.463691E1,1.120737E2,1.57354E2,2.9341354E0,0E0,3.6166294E0,3.3326702E0,5.604586E0,3.3749054E1,3.7841038E1,6.344166E0,1.32074585E1,0E0,1.4952915E0,1.3030685E2,3.5157043E1,0E0,7.1531677E0,1.3022949E1,3.6621094E-3,1.2613979E1,3.7679672E0,3.9671993E-1,0E0,1.0295929E1,0E0,3.23938E0,1.8123369E2,7.755884E2,4.4034058E1,2.113987E0,2.2097778E-1,4.2968753E-1,0E0,1.031105E0,2.9798415E0,3.0041227E0,2.0585074E0,2.0450958E1,2.3807402E0,3.6690414E1,8.3511734E-1,2.3660421E0,2.91723E0,4.3799896E0,0E0,1.7207778E0,0E0,1.630082E1,3.083191E1,1.5671326E1,2.0238846E1,0E0,5.711212E0,5.1379166E0,3.9945068E0,0E0,1.541565E0,2.3589573E0,1.6093597E1,1.8616076E0,4.0964508E-1,0E0,0E0,0E0,0E0,2.3914795E0,8.41558E-2,8.84552E-1,1.0015958E2,9.049805E1,8.359512E0,9.128418E-1,2.6654785E1,2.1818466E0,5.923754E0,0E0,1.5321388E0,0E0,0E0,9.582413E0,0E0,2.7290435E0,0E0,2.6057978E0,0E0,0E0,1.4323003E0,4.1166973E0,4.288025E-1,0E0,0E0,1.4376682E1,7.729705E1,0E0,0E0,0E0,2.5754323E0,2.8184562E0,1.1217875E0,0E0,4.1810265E0,0E0,3.0929158E0,1.2806534E1,1.3142966E1,1.2893858E1,1.0002296E1,2.7873375E1,1.0501129E1,1.5483036E1,3.308103E1,3.235775E0,4.6362863E0,3.0369663E-1,6.7322903E0,1.7647415E1,3.1947632E0,4.443943E0,0E0,2.3046207E-1,2.7182717E0,3.7244883E0,2.9891644E0,0E0,1.1062689E0,0E0,0E0,0E0,0E0,0E0,0E0,0E0,0E0,0E0,0E0,0E0,0E0,0E0,0E0,0E0,0E0,0E0,0E0,0E0,0E0,0E0,0E0,0E0,0E0,0E0,0E0,0E0,0E0,0E0,0E0,0E0,0E0,0E0,0E0,0E0,0E0,0E0,0E0,0E0,0E0,0E0,0E0,0E0,0E0,0E0,0E0,0E0,0E0,0E0,0E0,0E0,0E0,0E0,0E0,0E0,0E0,0E0,0E0,0E0,0E0,0E0,0E0,0E0,0E0,0E0,0E0,0E0,0E0,0E0,0E0,0E0,0E0,0E0,0E0,0E0,0E0,0E0,0E0,0E0,0E0,0E0,0E0,0E0,0E0,0E0,0E0,0E0,0E0,0E0,0E0],"parents":[2147483647,0,0,1,1,2,2,3,3,4,4,5,5,6,6,7,7,8,8,9,9,10,10,11,11,12,12,13,13,15,15,16,16,17,17,18,18,19,19,20,20,21,21,23,23,24,24,25,25,26,26,27,27,29,29,30,30,31,31,32,32,34,34,35,35,36,36,37,37,38,38,39,39,40,40,42,42,43,43,44,44,46,46,47,47,48,48,49,49,50,50,51,51,53,53,55,55,56,56,57,57,58,58,59,59,60,60,61,61,63,63,64,64,65,65,66,66,67,67,68,68,69,69,70,70,71,71,72,72,73,73,75,75,77,77,78,78,79,79,80,80,82,82,83,83,84,84,86,86,87,87,88,88,89,89,90,90,95,95,96,96,97,97,98,98,99,99,100,100,101,101,102,102,103,103,104,104,106,106,109,109,111,111,113,113,116,116,117,117,118,118,121,121,122,122,126,126,127,127,128,128,130,130,132,132,133,133,134,134,135,135,136,136,137,137,138,138,139,139,140,140,141,141,142,142,143,143,144,144,145,145,146,146,147,147,149,149,150,150,151,151,152,152,154,154],"right_children":[2,4,6,8,10,12,14,16,18,20,22,24,26,28,-1,30,32,34,36,38,40,42,-1,44,46,48,50,52,-1,54,56,58,60,-1,62,64,66,68,70,72,74,-1,76,78,80,-1,82,84,86,88,90,92,-1,94,-1,96,98,100,102,104,106,108,-1,110,112,114,116,118,120,122,124,126,128,130,-1,132,-1,134,136,138,140,-1,142,144,146,-1,148,150,152,154,156,-1,-1,-1,-1,158,160,162,164,166,168,170,172,174,176,-1,178,-1,-1,180,-1,182,-1,184,-1,-1,186,188,190,-1,-1,192,194,-1,-1,-1,196,198,200,-1,202,-1,204,206,208,210,212,214,216,218,220,222,224,226,228,230,232,234,-1,236,238,240,242,-1,244,-1,-1,-1,-1,-1,-1,-1,-1,-1,-1,-1,-1,-1,-1,-1,-1,-1,-1,-1,-1,-1,-1,-1,-1,-1,-1,-1,-1,-1,-1,-1,-1,-1,-1,-1,-1,-1,-1,-1,-1,-1,-1,-1,-1,-1,-1,-1,-1,-1,-1,-1,-1,-1,-1,-1,-1,-1,-1,-1,-1,-1,-1,-1,-1,-1,-1,-1,-1,-1,-1,-1,-1,-1,-1,-1,-1,-1,-1,-1,-1,-1,-1,-1,-1,-1,-1,-1,-1,-1,-1],"split_conditions":[1E0,5.154639E-3,5.154639E-3,3E1,2.1E1,1.8E1,1.0612781E0,3E0,2.6E1,3.243243E-1,2.2E1,5E0,5E0,1.3E1,-1.4382337E-1,3E0,1E0,2.5E1,3.5E1,1.8464394E0,5E0,1.8E1,-1.431688E-1,5E0,9.1829586E-1,2.4E1,2.6E1,2E0,-1.3813446E-1,5E0,8E0,5E0,1.9E1,-1.445186E-1,3.1E1,3.7345216E0,3.3E1,5E0,9E0,4E0,4.107143E-1,-1.3652949E-1,3.6644979E0,1.2E1,7E0,-1.329829E-1,6E0,1.5849625E0,1.3E1,6E0,3.4E1,1.1E1,1.100807E-1,2E0,-1.5821813E-1,6E0,6E0,4E0,1.1E1,5E0,1.6E1,3.5216405E0,-1.2314701E-1,5E0,3.2E1,3.6E1,3.4528196E0,6E0,3E0,1.4E1,1E1,1E0,1.5219281E0,1.921928E0,-1.3782199E-1,4.225352E-2,-9.584182E-2,1.6577427E0,3E0,2.257756E0,9E0,1.2275448E-1,2.1556392E0,3E0,3E0,-1.4180546E-1,2.7E1,2.1E1,5E0,4E0,3.4548223E0,-1.24761574E-1,-4.1332185E-2,-1.5252309E-1,-3.8131874E-2,4E0,1.8464394E0,1.5E1,1.2E1,5E0,8E0,6E0,9E0,1.1E1,1E1,-1.452005E-1,3.3836746E0,4.8484128E-2,-1.6464181E-2,4E0,1.2595172E-1,2.8E1,-8.014275E-2,3.5216405E0,-1.2778556E-1,-7.873719E-2,3.8E1,1.4705883E-1,1.6577427E0,-7.5918646E-3,1.2207671E-1,3E0,1.2E1,1.451325E-1,3.3641595E-2,-1.3980861E-1,3E0,1.0612781E0,4E0,-1.3508326E-1,9E0,-8.991525E-2,1.2162162E-1,4E0,9E0,3E0,4E0,4E0,1.6E1,1.6E1,3E0,1.5219281E0,2.8073905E0,3E0,2.2E1,8E0,2.502736E0,3E0,-1.3667285E-1,9E0,1.4E1,1E0,7E0,1.7569212E-2,1.8E1,-1.3848208E-1,-3.3158176E-2,8.0964655E-2,6.676375E-2,-9.707437E-5,2.72058E-2,-2.1615973E-1,-1.5009713E-1,1.621206E-2,5.204702E-2,1.0393844E-1,6.2357333E-2,1.1364905E-2,-8.4798105E-2,2.6872372E-2,1.11352704E-1,7.6937065E-2,1.3168798E-1,2.5257295E-2,-9.2803344E-2,-1.1173967E-1,1.1833679E-1,-5.6762096E-2,-1.2314912E-1,7.883193E-2,-1.4420958E-1,-2.6228948E-2,6.094256E-2,7.1147725E-2,-6.651062E-2,3.932865E-2,-3.8301714E-2,9.044257E-3,-6.750395E-2,-1.4139783E-1,-5.8328893E-2,-3.4916114E-2,-8.446731E-4,-1.5328243E-1,-2.140826E-2,-7.052188E-2,2.8100213E-2,-1.6717203E-2,8.321356E-2,3.8029787E-3,-7.372146E-2,-6.2218275E-2,-1.2822892E-1,6.649962E-2,-8.3519615E-2,9.978025E-2,-1.5802716E-1,-1.3096868E-1,3.9279148E-2,-6.579732E-2,9.433185E-2,-8.355506E-2,-3.593099E-2,-5.0327517E-2,-1.511907E-1,-1.3538466E-1,-6.5689966E-2,-1.3531143E-2,-7.7932164E-2,4.4297255E-3,-1.3030411E-1,2.6229724E-2,1.078038E-1,-3.323019E-2,1.08114384E-1,-1.1904701E-1,-3.7858956E-2,4.4445492E-2,-1.1245536E-1,-1.2843521E-1,-4.71633E-2,-1.1432882E-1,-1.3324554E-1,1.6282419E-2,-1.1147151E-1,6.2761836E-2,1.1442559E-1,8.679172E-3,1.1981773E-1,-6.633249E-2,8.0428384E-2,-8.814841E-2,2.130429E-2,-9.055188E-2,-3.8029575E-3],"split_indices":[3,6,6,4,4,4,15,2,1,6,4,2,2,4,0,1,14,1,4,15,1,1,0,1,15,4,4,3,0,4,4,2,4,0,4,15,1,2,2,1,6,0,15,4,1,0,2,15,1,2,4,4,0,1,0,1,1,2,4,2,1,15,0,2,1,4,15,4,1,4,2,15,15,15,0,6,0,15,1,15,1,0,15,2,2,0,4,4,1,1,15,0,0,0,0,1,15,4,1,1,4,4,2,4,1,0,15,0,0,2,0,1,0,15,0,0,1,6,15,0,0,2,1,0,0,0,2,15,4,0,4,0,6,2,4,2,1,2,4,4,2,15,15,1,4,1,15,2,0,1,1,15,2,0,1,0,0,0,0,0,0,0,0,0,0,0,0,0,0,0,0,0,0,0,0,0,0,0,0,0,0,0,0,0,0,0,0,0,0,0,0,0,0,0,0,0,0,0,0,0,0,0,0,0,0,0,0,0,0,0,0,0,0,0,0,0,0,0,0,0,0,0,0,0,0,0,0,0,0,0,0,0,0,0,0,0,0,0,0,0,0,0,0,0,0],"split_type":[0,0,0,0,0,0,0,0,0,0,0,0,0,0,0,0,0,0,0,0,0,0,0,0,0,0,0,0,0,0,0,0,0,0,0,0,0,0,0,0,0,0,0,0,0,0,0,0,0,0,0,0,0,0,0,0,0,0,0,0,0,0,0,0,0,0,0,0,0,0,0,0,0,0,0,0,0,0,0,0,0,0,0,0,0,0,0,0,0,0,0,0,0,0,0,0,0,0,0,0,0,0,0,0,0,0,0,0,0,0,0,0,0,0,0,0,0,0,0,0,0,0,0,0,0,0,0,0,0,0,0,0,0,0,0,0,0,0,0,0,0,0,0,0,0,0,0,0,0,0,0,0,0,0,0,0,0,0,0,0,0,0,0,0,0,0,0,0,0,0,0,0,0,0,0,0,0,0,0,0,0,0,0,0,0,0,0,0,0,0,0,0,0,0,0,0,0,0,0,0,0,0,0,0,0,0,0,0,0,0,0,0,0,0,0,0,0,0,0,0,0,0,0,0,0,0,0,0,0,0,0,0,0,0,0,0,0,0,0,0,0,0,0,0,0],"sum_hessian":[3.2567486E4,2.4455719E4,8.1117676E3,2.2227605E4,2.2281138E3,3.3158745E3,4.795893E3,2.185541E4,3.7219412E2,1.3825344E3,8.455793E2,1.0890198E3,2.226855E3,5.9865505E1,4.7360273E3,4.2561997E3,1.759921E4,2.8693588E2,8.525822E1,1.1023154E3,2.80219E2,2.1940468E1,8.2363885E2,9.681088E2,1.2091091E2,2.1112131E3,1.1564183E2,1.4070247E1,4.579526E1,1.0114668E2,4.1550527E3,1.7506916E4,9.229557E1,2.8150632E2,5.429586E0,6.1439228E1,2.381899E1,1.3150911E2,9.7080634E2,3.6896355E1,2.4332265E2,1.1977173E1,9.963295E0,3.4386215E2,6.242467E2,3.8042078E0,1.17106705E2,7.693523E2,1.3418607E3,6.2639614E1,5.3002216E1,8.308314E0,5.761932E0,6.2942505E1,3.820418E1,7.3800543E2,3.4170474E3,1.506365E4,2.4432659E3,4.771713E1,4.4578445E1,2.485846E0,2.94374E0,4.341195E1,1.8027275E1,1.2275165E1,1.1543827E1,1.2402489E2,7.4842196E0,9.56152E2,1.4654318E1,2.048015E1,1.6416203E1,8.957611E1,1.5374654E2,5.285371E0,4.677924E0,1.2920177E2,2.1466037E2,3.7066E2,2.5358669E2,7.776452E1,3.934219E1,1.8317358E1,7.51035E2,1.2222711E3,1.1958961E2,2.7385817E1,3.5253796E1,1.834277E1,3.4659447E1,6.2344055E0,2.0739088E0,8.487903E0,5.44546E1,7.2038446E2,1.7621004E1,3.7783325E1,3.3792642E3,1.4693123E4,3.7052734E2,6.0967365E2,1.8335922E3,4.5239906E1,2.477223E0,1.9243263E1,2.533518E1,1.3793509E0,1.1064951E0,3.872541E1,4.6865396E0,1.6553556E1,1.4737191E0,3.9471266E0,8.328038E0,1.7304494E0,9.813377E0,3.734045E1,8.668443E1,1.6438634E0,5.840356E0,7.145182E2,2.4163383E2,1.3203611E1,1.4507058E0,4.1313686E0,1.6348782E1,9.847047E0,6.569156E0,1.6433634E1,7.314248E1,1.1917956E0,4.0935755E0,9.71127E1,3.208907E1,2.409248E1,1.9056789E2,1.2746612E2,2.431939E2,1.5324442E2,1.0034227E2,2.9040724E1,1.0301466E1,6.1806006E0,1.2136758E1,1.3397302E2,6.1706195E2,2.9544643E1,9.004496E1,1.3267744E1,1.41180725E1,1.2205167E1,2.304863E1,1.7342647E0,1.6608505E1,3.3543407E1,1.1160388E0,1.961958E2,5.2418866E2,1.1995684E0,1.6421434E1,1.913708E1,1.8646248E1,2.1572922E3,1.2219718E3,5.450679E2,1.4148055E4,9.043406E0,3.6148392E2,2.021209E0,6.076524E2,1.7385199E3,9.5072296E1,1.228234E0,4.401167E1,1.2408704E0,1.2363524E0,7.6930175E0,1.7642164E1,3.7594776E1,1.1306361E0,4.2707944E0,1.2282763E1,1.2143737E0,2.7327528E0,7.3971143E0,2.416263E0,8.946116E0,2.8394335E1,8.412635E1,2.5580885E0,1.5834024E2,5.561779E2,5.780363E1,1.838302E2,1.3690105E1,2.6586764E0,4.6982718E0,5.148775E0,2.9951715E0,3.5739846E0,6.0972717E1,1.2169761E1,2.9655745E0,1.128001E0,9.600594E1,1.1067597E0,4.3931684E0,2.76959E1,6.0276785E0,1.80648E1,1.1577066E2,7.479723E1,8.731615E1,4.014997E1,2.159738E2,2.7220085E1,8.9600395E1,6.3644024E1,2.3730997E1,7.6611275E1,7.1707315E0,2.1869991E1,8.197039E0,2.104427E0,4.2854857E0,1.8951151E0,9.429219E0,2.7075381E0,9.461984E1,3.935318E1,1.9671239E2,4.2034952E2,2.7564561E0,2.6788187E1,7.919304E0,5.3484397E0,1.239062E1,1.7274526E0,1.2485126E0,1.0956655E1,2.0618374E1,2.430256E0,1.4889487E1,1.719018E0],"tree_param":{"num_deleted":"0","num_feature":"16","num_nodes":"245","size_leaf_vector":"1"}},{"base_weights":[7.3133357E-4,3.897115E-1,-1.201651E0,4.8733285E-1,-1.1497034E0,-7.753014E-1,-1.346003E0,5.421979E-1,-3.69566E-1,-1.4148216E0,-1.6120657E-1,-8.838821E-1,7.807443E-1,-1.3595269E0,-1.0263246E0,5.878104E-1,1.3486376E-1,-2.540286E-1,-9.837306E-1,-1.4245796E0,-9.026686E-1,3.463247E-1,-1.2059772E0,-6.277931E-1,-1.3066208E0,1.1250942E0,2.2092311E-1,-1.3080281E0,-1.3845119E-1,-2.7294752E-1,-1.3340465E0,3.4349954E-1,6.424525E-1,1.5798049E-1,-1.3723722E-1,-1.8641184E-1,-1.0428466E0,-1.0083579E0,3.5032403E-1,-1.8352743E0,-1.3950002E-1,-1.4056578E-1,1.1832765E-1,4.960998E-1,-1.2279575E0,-8.946373E-1,-1.3726275E-1,5.428441E-1,-7.2990334E-1,-2.7655022E-2,-1.3319657E0,1.1434752E-1,2.0935473E-3,-1.2897949E-1,4.158441E-1,-1.1946152E0,-1.3474116E0,-7.8408286E-2,-1.304278E-1,-9.1228557E-1,-1.3757998E-1,-7.975486E-1,3.7513453E-1,9.8278904E-1,6.20474E-1,1.0988902E-1,7.76656E-1,-8.061885E-1,-1.02031514E-1,-1.402829E-1,-4.2273703E-1,-7.957082E-1,-1.2036741E0,1.22858E-1,-3.342847E-2,-1.9903831E-1,-1.3504969E-1,3.9151382E-1,-9.623679E-2,5.419279E-1,-1.2628143E-1,-6.107305E-1,-1.3361524E-1,-1.3612941E-1,-4.0052336E-1,-3.615777E-1,9.159291E-1,-2.1339874E-1,-8.325121E-1,-8.439551E-1,1.1643588E-1,-1.3518529E-1,-1.0700966E0,5.696418E-1,-8.3059746E-1,